0.02230832324962
-0.0041404927615076
-0.028851505934394
-0.0093116789357737
-0.0057983408249649
0.0078176102667515
-0.0268717416163
0.025318735495343
0.021192940899969
0.018769830365532
0.0013354207788195
0.030295801548553
0.034586990651275
0.0064905511182068
0.033922768879815
0.010301098127716
0.017281797149086
0.0060825141512656
0.032630542343083
-0.019797655338022
-0.015352561554339
0.0022900043654123
0.0068114224954375
-0.01635244310767
0.011080457047293
0.031549088590379
0.0217943365985
0.014707088104582
0.020777280209586
0.0164239697624
-0.0048257497006229
-0.03297883162408
-0.0030519995904927
-0.0087316180080441
-0.032376804023183
0.022729824912468
-0.001897112599441
0.032783461984114
-0.0054269218817353
-0.0094192429179592
-0.025717906786927
-0.021161215180265
-0.0054843005158805
0.026206473819911
-0.035157233626316
0.010965350433253
-0.010366487416572
0.023914367359664
0.0085534638492391
-0.03134441083031
0.011830130791558
0.013792152300344
-0.017181260893787
-0.010286704886572
-0.010216678060325
-0.0034041834629274
0.035254859116061
-0.020122052519582
-0.0071872066806204
0.016683199692384
-0.022757565469614
-0.0056216611493645
0.028200485993044
-0.0052169248727815
0.02512097192396
-0.014462105713652
-0.035643168458981
-0.012835449738694
0.028394729763802
-0.022433283821946
0.024014981114306
0.0045222427662728
-0.015037333393203
-0.016757212429573
-0.02174934768118
0.0069898068239646
0.010033678845502
0.0094300243072212
-0.028316239942797
0.017397360643372
0.032415490032041
0.035166971269064
-0.012173807348258
0.035381274297833
-0.015299675736709
0.0064258704327845
-0.013632473053544
-0.012670227975052
0.011769696521307
-0.029138084018736
0.027588200971617
-0.021354256796518
-0.0013850807278816
0.0026410142558494
-0.017610474023968
-0.017689308600633
0.0086263933418585
4.4846474858265e-05
0.0016699324727857
-0.024132140529608
0.010852439545228
-0.010391943672273
0.0025857087956475
0.033557238489656
0.0056694577381547
-0.025749158097564
-0.034022542864217
-0.022014814229416
0.017387524529892
0.027432103375239
-0.0042447942375605
0.028410346613133
0.020980179476153
0.02339599906866
-0.020997106962438
-0.0090467010491661
-0.022844132218909
-0.00560208177194
-0.023403162103412
-0.031896620938954
0.019625639809029
-0.0070592226028176
-0.024228156444484
0.013496481048475
0.028155029019607
-0.020528181572445
-0.014072391670197
-0.0078973235130044
0.0075422284093552
0.033886798790523
0.018050521695321
0.029724401272168
0.033910141126918
-0.019140013410444
0.013780341799637
0.02792132965156
0.028189135432642
-0.0053451805641609
-0.033459935952643
-0.0027871903896864
-0.035500876489095
0.015615670126863
0.030917096001628
-0.032639900804497
-0.010672988153861
-0.02399865366585
0.025680139943558
-0.026587221239294
-0.0056736129668674
0.014802175840097
-0.025962939635584
0.034100332763046
0.0062236753126074
0.0014664423651993
-0.019890465058519
0.035169706280742
0.0048472910420969
0.01846691008125
0.004529105832002
-0.003273488371633
0.011847866150284
-0.0022778542645808
-0.025449136721103
0.012232652349797
-0.034563153865747
-0.027368614699558
0.0060906631739012
0.014543558271336
0.0064503768392439
-0.0012056153167837
0.032582005253062
-0.019040232590799
-0.030758259285774
-0.014474656732221
-0.011414834713962
-0.010270563303493
-0.0025433227419853
-0.0024873752013913
0.027581629010716
0.0054229770820322
0.011652458176416
-0.020577568510946
0.024347809841856
-0.016994389206437
0.0014059701269226
0.034846304034415
-0.0040669311336907
0.0062720716731357
0.021569861049232
-0.035574512772395
-0.035665133735165
-0.013622387462029
-0.00069508779727455
0.031504666083492
0.0034911360624911
-0.027964837167279
0.0063967477097841
0.015965999020929
-0.026574264430175
-0.013763200258836
-0.0027842805055635
0.027793470836644
-0.030942875326478
0.012017652076403
0.010563146788627
0.0016745950561017
-0.011545632566725
0.020707878666664
-0.030146622614536
0.014103837311268
0.0086390001399975
-0.017961567617022
0.013989369202006
-0.0349000301711
-0.02513426387616
0.027442412567325
-0.016674721530373
-0.0028708430140146
0.0049207868121032
-0.035576308062965
0.0029323651189251
-0.029386713651807
-0.02593081271542
0.024336161358016
-0.0018935647759853
-0.0048952509283221
-0.017009142320603
0.0029242300993896
-0.024032686437879
-0.034002903233548
0.021415668439918
-0.033206858056863
-0.027248244616203
-0.02164543894053
-0.0069182825308027
0.013255012936757
-0.0021389458395009
0.03387074942501
0.00018106475805065
-0.0098852184601128
0.013923298185026
-0.026430930909035
-0.02072392941253
0.0018604874078717
0.018711357294316
0.012860041860092
0.0064773140641462
0.031197609629349
0.018453327306945
0.020518400673089
-0.0044638916317906
0.017268447837393
-0.026478773614924
-0.011831110027353
-0.017953105636739
0.0031866506573611
0.033408348598251
-0.0084160765732772
-0.00059027627243528
-0.0040536510392225
0.010938788631133
-0.023175756896048
-0.033486297403994
-0.010501247564597
-0.019670571632949
0.0096764354135043
-0.031415939680301
0.02804919663218
0.030161045691265
-0.033856401602472
0.016734341575232
-0.0085012912916552
-0.01957030858778
-0.024442138183596
0.017646222425226
-0.010798825350191
0.035689920985273
0.010658974792542
0.018613018045601
-0.034692411976201
0.0073848021981706
-0.0019015585837354
0.029831565384354
-0.035159781043019
-0.017283443877074
0.013423753902316
0.034043523399825
-0.0050203433326845
0.001143414094778
0.0012632863030636
0.029835253521534
0.012505856991213
0.0049815720745495
0.025690533836106
0.02927149095506
0.033167265106126
0.0059176595116566
0.029661302055631
-0.015821567420582
-0.014299569684746
-0.010382825458821
-0.027019163493865
-0.014187416011867
0.034717546908983
0.013301058239969
0.035207553317637
0.00015615893062204
0.0037698763855068
0.012639779530998
0.015421892383269
-0.0080524850803028
0.025348505038502
-0.024579957659755
0.019754069607838
0.032111474329473
0.018647724612882
-0.027399015878992
-0.026604134057249
-0.0080002950271592
-0.018941726951328
0.023866915925672
-0.0038143440615386
0.015936292824335
-0.035549684228109
0.0074536809864055
0.02641904824746
0.0095288164780608
0.032836872402446
-0.0073088298252385
0.013254650835214
0.025455921455952
0.030614272624786
0.0062703462317586
0.019977197915848
-0.011077992268838
0.018366940535738
-0.0023496817198715
0.0022636225413797
-0.022380025225825
0.019328613898584
-0.006364372126492
-0.027116995138515
-0.019303851128955
-0.027103570190125
0.030402025756692
-0.017113034480384
0.0061824456455984
0.021326089660371
-0.015500852572066
0.032126389643443
-0.03411652259196
0.027124468702823
-0.029912672770609
-0.024210726842284
-0.0065231117519683
-0.028426474492465
-0.024446650674301
-0.0083799780113623
-0.033433941691848
-0.014681962651334
0.030300033478332
0.017083744119321
0.025591584338274
-0.025085419133705
0.013320989807003
0.006431708112359
-0.027127804683654
-0.011668273098102
0.03453778977772
0.0069570445588657
-0.023551950746748
-0.022888094053737
-0.0063061854369672
-0.0014920922362113
-0.016315379329691
0.021715571388735
0.0060296109212296
0.0072586449927517
-0.010848085329469
-0.011797083342182
0.024622640888473
-0.013017081888393
0.0085997123138181
-0.021641751269012
-0.01149585226085
0.0045317081634754
0.016451496398076
-0.031793786944555
0.03131684319981
-0.0024097790010273
-0.024013205797278
0.019007418870128
-0.017469715509963
0.024867609775226
-0.010464115201363
0.014652941658694
-0.023916262601103
-0.0025919388114874
0.0099076520418748
0.011738330208963
0.023741652108064
0.024960131733678
-0.021881788287179
-0.029696343350224
0.026661067901711
0.0091121931161199
-0.0098946800987635
-0.0247051402361
0.016811465561789
-0.029565221862867
0.030446940234729
-0.033110222313553
0.013977288434814
0.014226515827301
-0.013450077535318
-0.023533251119911
0.028983880981936
0.0078197998061244
-0.01071069264851
-0.011878757521377
-0.027173584875917
0.020670713075171
-0.014548536173866
-0.0043008095651333
-0.0099684898408928
-0.011913868199502
0.034294327122292
-0.016966539568135
-0.030449105060792
-0.0077679476235062
0.011305095262027
0.028963117826996
0.034346749241065
0.026075380854309
-0.024276229835648
-0.0071363446934681
0.026635459358139
-0.03056836241324
-0.029886841724095
-0.024060941417702
0.011077478860638
0.022194588623409
-0.018295390980451
0.024048100142474
-0.028621850784735
0.0041498627979308
0.032468544369164
-0.0097605339417766
0.018172229756601
-0.014767670588169
0.017974830515284
-0.025210032555541
-0.027175622443402
-0.0086043521961463
-0.022138400252775
-0.014863935232695
0.02263084684299
-0.0057968750063862
0.0028835432437648
0.011163978571338
-0.030699707384753
0.020312189490401
-0.026704876400929
0.028195233317092
0.025572462755788
-0.022409765515476
-0.027758019909795
0.021351658007396
0.028376595965321
-0.003732419057217
0.020343772983844
0.019131990548755
-0.016588934713842
0.023959432429235
0.011233925104274
0.015330143871584
-0.0036923035180994
-0.0081740938226825
0.0028820951369458
-0.032889037941849
-0.00052505638450384
0.016170034501036
-0.01521158441236
-0.008589462859423
-0.0047428064281121
-0.022173534080918
-0.031813690688328
-0.0058302392551143
-0.0032920477678999
0.011179149150848
-0.017014521273917
-0.013084312019471
-0.0039454110000016
0.035357370939372
-0.0071756031164633
-0.0074125184910372
-0.022581648331002
0.01732526059329
0.019955188634672
-0.0016821707665388
-0.032689639150963
0.018161018778171
-0.020848549819285
0.030912432137744
0.030294940291372
-0.024665131998648
0.017210590669752
-0.0050747383252851
0.0098065651587344
-0.010094559917759
-0.014403120065773
-0.018288606328757
0.011858158528672
0.028426769738352
0.025419956089796
0.027760112508466
0.035574317693577
-0.033325155698029
0.021319827996194
0.027198113368026
-0.027234341566717
-0.017763785302772
-0.026773747040092
0.01986127082325
0.012237781825076
0.0067885134901319
-0.0095311408430072
0.034994568659126
0.024072588404774
0.023700089543127
-0.010345533872688
0.017150268208102
-0.035292161229466
-0.0064753123525796
0.027419999507921
-0.016431819032212
-0.010200931491064
0.0064740173984319
0.028771389009697
0.030696361109481
0.031467790665504
0.033826172983806
0.021883277704806
0.0015188217595486
-0.030019469974962
-0.0016211523907259
-0.010856932361743
0.0059292750333303
-0.031071001813481
0.02119177606489
0.005569436886747
-0.016888606944121
0.020356466960428
-0.019088902161457
-0.00059048623578357
0.034488312999851
-0.0053167368584712
-0.029085823667369
0.017016002243119
-0.011555943954071
-0.014789660544401
0.018294828178893
-0.0079659882300933
-0.020405799932113
0.028009084302799
-0.030253540857562
0.031434089361158
0.0040195579141645
-0.0036391536372581
-0.03450478468689
0.011477456611049
-0.028510738530063
-0.0026439442631922
0.017239548066365
-0.0069286993239075
0.013052372794066
-0.027310128490041
-0.0092875601424436
0.0046540529500427
0.010571520243372
0.014401338745042
-0.0084951189013996
-0.026490674404028
-0.020778154189299
-0.030572739912064
-0.023276426114275
-0.028270336466708
0.033015809487551
0.0049827035649547
-0.0029582956506472
-0.025994373734907
-0.031963160028681
-0.022898081573658
-0.025069041443723
-0.0038693815835619
0.028490064283168
-0.014469904326169
0.034321682827015
0.0071885957648712
-0.01632052212621
0.002172240854374
0.0061300028547911
0.0043754444424329
0.0085563206479752
0.0016785679451589
-0.0050579055179177
0.022729196469299
0.019766096142121
0.013723120575638
0.0099235454108566
0.0048232000055058
0.02714966171022
0.0064810690569824
0.031135921349882
0.03242866319072
-0.01045944679728
0.020204467715562
0.0019961796102247
0.0045605771010742
-0.024488884473353
-0.0094111563438284
0.029823837169845
-0.027002228024815
0.033133985507967
-0.010568577729698
0.021290330000089
0.016706254000642
-0.027835781004147
-0.016861179677237
0.017097447632945
-0.015185046758104
0.021293264198383
0.0014767771353945
0.011769716511481
-0.0095877860107326
0.0030985111703298
0.022685869297545
-0.030698474712803
0.019861738114352
-0.025330068992584
0.0095538944172274
0.0072087392244222
-0.0025593195709267
0.0092293077281543
0.00012333910646183
-0.0025141572446695
0.0067363286756777
0.013521300994658
0.030421975368102
-0.021153943513387
0.031143435726075
0.025445787252725
0.024887566571124
-0.032320755949643
0.016581956130852
-0.0041960479492055
0.0033881338313222
0.032367093272374
-0.017601441475563
-0.025795967318118
-0.023026551336183
0.021713298762084
0.017330571410379
0.034655594632828
0.0065804231479498
0.027807548276282
-0.0078514624453549
0.007919134522256
0.015998496341386
0.017219928093255
0.01821469645282
0.022080771658303
-0.019994137392912
-0.035218932682515
-0.010014462484313
0.026329343090765
0.0086621945125184
0.024474066582375
-0.008260753421512
0.018089965451509
0.017780366536629
-0.0035422196711547
0.029236208281613
0.035254326033672
-0.0246466228938
-0.035544848668256
-0.023583957493039
-0.029695845641462
-0.0066868522470551
0.026765422845658
0.016090835561045
-0.012886934863803
0.033586100575381
-0.022079432050564
0.026576655035439
0.0063996672896402
-0.03251989096004
0.0021636423688116
0.0094603513467259
-0.011703000653402
0.030517293888676
0.011924582699846
-0.0038153828853475
0.0086124646477401
-0.0140976443155
-0.019029604320947
0.00029951951000839
0.00029253809978919
-0.032042193126732
0.019217591632956
-0.025671923882328
0.007566059823148
0.029276081543815
-0.018546178138682
0.011194742783638
0.0010410444977294
-0.0043265355883964
-0.0098121940557446
0.0028443845720696
0.00059423695451447
-0.022026581091008
0.014436362128306
0.0041302200240482
-0.028090495832397
-0.014806656765618
-0.032988957495296
-0.013247929247362
0.023739906876082
0.0086276733449527
-0.018768522023622
-0.030930935854225
0.012741172237189
-0.032158718361253
-0.034916137528074
-0.018871354404837
0.014033568224737
0.023692642172266
-0.020676828438549
-0.0079375872321959
-0.022053997730836
0.015190057290186
0.018321580503003
0.0068670559474932
-0.018742508221684
0.023811131200221
0.029418002464809
0.031343031475054
-0.018734795540305
-0.025202332713109
0.012258013244718
-0.013396009237372
0.035214246566673
0.010169826032195
0.021630155737512
0.034089144718434
0.014746378425376
0.0098565498566521
0.021654517472988
-0.030158976841319
0.018101138728006
-0.0055114046138312
0.021519989673314
0.016182793354216
0.0097112637013197
-0.025370779131273
-0.01035140078914
0.032845051709696
-0.01926295645535
-0.0037877843382635
-0.020606929868726
0.01093010286734
0.02655060161903
0.033618989633396
0.023073375092021
0.010439434188551
0.028650517309351
-0.021530410973355
-0.0040504393899547
0.017753684544004
-0.0085326322088284
-0.018182359087015
0.035629417830413
0.0013703801502873
0.014252637762443
-0.011901436107499
0.0087652458875839
0.015853656489136
0.018054941768891
0.00029112293850631
-0.003756861185788
-0.029135953535193
-0.013719198177569
0.010022919358952
0.022792778626483
0.020405050333855
-0.03481465331944
0.0091750999313912
0.023535498684006
0.012742816104687
0.014217801441971
0.015173637940149
0.024891847827738
0.0047974750965035
0.016499238853742
0.0075513342994132
-0.019160448856253
-0.030782929322283
-0.01886996956143
-0.022701059850598
-0.0084057477901557
0.014104574203624
0.034342503873631
0.010465198961486
-0.0016702322422394
-0.034925472673162
0.031420765926928
0.024877280761887
-0.0030053385001208
-0.013908894350087
0.02667129556981
-0.011987408955715
-0.034964942290182
-0.012725215870887
-0.021460942142377
-0.00023998742524002
0.014033852361276
0.0015791870620368
-0.01870660480511
-0.0079126453326483
-0.034257657144086
0.030073094896839
0.0092934245476499
-0.033801469270007
0.019221984149356
0.035253344852078
-0.01492323254102
-0.019357031959641
0.018677276625697
0.02602393664087
0.0020493102326457
-0.0039166572304176
-0.016439723782241
0.019904075938809
0.0052157917359312
0.029389639817444
0.0022270407228331
-0.026002802370515
-0.012484881078957
0.0022556437345754
0.019604406868374
0.027381857873739
0.020539014450541
-0.027633894584142
0.00038795778527856
0.0049454372908388
0.012676069180348
0.021280086965167
-0.021833101370638
-0.0027143495223884
0.023304346516462
0.014908164789501
0.015309903587747
0.0054192175489983
-0.016696146173802
-0.008624945617547
0.035310602114935
0.018146889517084
0.035591915848532
-0.0017346424616075
-0.0049197844429208
0.01073063855126
-0.014771132014825
0.015820374379733
-0.0098795383569917
0.024908109119029
-0.02733246202115
0.022164413389484
-0.0055799373159451
-0.021377342985943
0.024582654154593
0.0006386156892404
0.031770921844457
0.032918273171942
0.02029608043709
0.029572916167256
0.028007363301835
-0.0032563087131296
0.01349262369331
0.0065957600184317
-0.0080117005854845
-0.033425770350732
-0.015768816145802
0.027775235124864
0.00097633800136724
-0.0077803828587223
0.021420905017294
0.01757683831134
0.012083324154706
-0.0081186690035143
-0.021930803528189
0.0021308826149574
-0.004353770803261
-0.027655779600276
-0.0094125218955534
0.032465339654924
0.0044640863447317
0.028714000995803
-0.0021395341193836
0.013001861948786
-0.019509871407146
-0.017384501190723
0.0015852658044813
-0.0053851641381958
-0.0062086518986949
-0.0016298556667087
0.024454671174421
-0.002553359322649
0.027788891789636
-0.0074478497096737
-0.021501995390281
-0.034996412844131
0.010592238096121
-0.0040926087115492
-0.00096607765382422
0.0017645681509748
-0.0234053963629
0.012241228167633
0.024833916686475
0.012651871756784
-0.014123037457466
-0.029251032808263
-0.00850280843276
-0.014840933427747
0.01892089494504
-0.0051749623546909
0.024223799767372
-0.011179945099034
-0.030283988353663
0.014545281667129
0.02396028786565
0.0059606866977577
0.032608143785702
-0.010123823470037
-0.0046754335884803
0.0047811613850562
-0.0030074450021077
0.035098432263892
-0.020408810598643
-0.018448557122611
-0.032820431365898
0.010783131783163
-0.012850450717711
0.027295896583902
-0.029788579741892
-0.017971320111038
-0.012932415785534
-0.0148850905077
0.033281577202225
0.029512167276282
0.0025387203287599
-0.012755733266074
-0.024095861607098
-0.032414642977528
0.028386768835065
0.011828216507898
-0.016589434318511
-0.016180175389828
-0.020077014375212
-0.0093398191300886
0.023056647557366
0.0023474660369435
0.0017824080173991
-0.029504382001635
0.035280517119515
-0.034635574373949
-0.017720742932787
0.03410254616756
-0.0069006406535794
0.013895645704386
-0.012556334225727
0.015529547468759
-0.01881699754657
-0.025274827061886
-0.019961679919756
-0.0018727319381599
-0.00030997457049255
0.016779316273252
0.0013717059378645
0.021309686974356
0.014279943574885
0.0066032486335774
-0.0033709785535133
0.033333259950658
0.022811143891886
-0.020850895654543
0.004018222148131
-0.019319667497517
-0.031906458333002
0.0015124329698405
-0.034744965893749
0.030138577351214
-0.035381430942964
0.0035065554714363
0.025890743127093
-0.025537675096919
0.029401606464359
-0.011298088938929
-0.019902201136574
0.00676619672283
0.020195423991286
-0.025716703967191
-0.015409155881831
0.027358053102424
0.011759823088401
-0.0062383371904226
-0.033425553419095
0.025102468340525
-0.013548352273314
0.02083100524864
0.017364295548759
-0.028030651654782
0.014053205477207
0.022247461269477
-0.0095959970162117
-0.019129237908471
-0.021069397218525
0.0015282903831186
0.0019549526706604
0.031871405080892
0.01453226886224
0.03281116033239
0.02005068769878
-0.0099545203348888
0.0098611621651798
-0.022197708088372
0.009555276300359
0.016901186983367
-0.019603633953791
0.00016026780940592
-0.005918799450488
0.018360341699528
-0.020504110160151
-0.01871069653758
0.016304298886098
-0.024685700024877
0.0032551171524184
0.029618776153906
0.0020883284575705
-0.0014078169562189
0.020031443348021
-0.019112040887454
-0.0018754823332919
0.011250120687432
-0.0041230554592663
-0.028561373839953
0.0054888777501349
0.0035041442606598
0.03519225155469
-0.029435971452455
-0.0019605135312304
0.026039216767198
-0.01343203653648
-0.0042525251129908
0.0076642613192754
-0.0094110962568915
0.019253268122806
0.029223648847879
0.033630188205279
-0.029183376746784
-0.026404685141253
-0.0068601829864617
0.033391412330924
0.0029022124695725
0.0058960036008752
0.0060041057544627
-0.026774379690843
-0.034767800326725
0.028022369885418
-0.011132449460482
0.026588348189502
-0.015898007051354
-0.0086563136262287
-0.034470825073575
-0.0059752935277564
-0.014168053699125
0.024480410402508
-0.0098991349306224
0.028363675178428
0.024075478947322
-0.0071945094802816
-0.022886961349286
0.016344057030178
0.015727942776201
0.024806987211507
0.0038672958035022
-0.034141447295302
-0.005269706947729
-0.00881269063601
0.0079279013443738
0.030082764370101
-0.01774427313025
0.012641995596433
-0.0089603985626517
-0.023715975827404
-0.0056529005856386
0.014584088182476
-0.011485658818856
-0.014296890020237
0.011307453088063
-0.025162858040338
0.0013086784996891
0.01968621035173
-0.025580750478964
0.014378693985886
0.019698725963411
-0.0028151067672297
0.020930128072255
0.012443797928946
0.011619297704393
-0.024511821401705
-0.024682899621049
0.021988115722447
-0.030818967963569
0.031290851234059
0.014454223714503
0.0020297876991598
0.0137062604273
0.00011292331120265
-0.00080518860236874
-0.01178111450281
-0.035363901356634
-0.0031129442754069
-0.013982943558533
-0.018748706938433
-0.027476588280738
-0.0088809667421239
-0.013269883647029
0.031664669480441
0.019417002414619
-0.014783163222351
0.015950020485824
-0.018746769122247
-0.033921688844982
-0.035394215823284
0.009460303333721
0.015515754980567
0.033505401640598
-0.0030862901891981
0.01542984837267
0.022892085519353
0.016336806417842
0.0029654800226646
0.032327678719802
0.0048790242123817
-0.016249389121575
-0.0051310431611325
-0.013821691989766
0.015831500724224
0.029678969377918
-0.020837785027522
-0.025608666972922
0.023341773709814
-0.013498452442166
-0.0157325940506
-0.010090135653237
-0.0040710954594293
0.029953111628337
-0.023309743198167
-0.026403448095412
0.025152955653279
0.0076882648115445
-0.033861387886905
-0.0048069315796186
-0.014954241691157
0.018997775340852
0.0023458177124017
0.0019602077414415
0.030807786504738
-0.016710713089976
-0.028807569627783
-0.00099969340953976
0.032707760759097
0.011251505198223
0.027589436171443
0.0050980817426794
-0.015171532552423
0.024423977709375
0.013995738450571
0.035522854504442
-0.01704462777291
0.023067844299866
-0.0049365593918732
0.026337211635629
-0.031995677405835
0.0061592650932393
-0.030820229373473
0.016792570856134
-0.028051218400443
0.030884875350499
-0.02615446800233
0.006734476956938
0.004870434690799
0.004229453658419
0.034612567696188
-0.013088876747393
-0.021416091360152
0.033888192714325
-0.024251216540246
0.0018707485370604
-0.027073337779646
-0.034187212769341
0.016592910164036
-0.0088215176115877
-0.033382992659296
-0.020865129722681
-0.0076706610187622
0.023491524143278
0.025281741616449
-0.02813301095739
0.0078147082323475
0.023498054111509
0.034107625467836
-0.0037608852476946
-0.024606892839074
-0.0043101748950513
-0.033276977682752
-0.017690934955941
-0.011507766853486
-0.0085885290089729
-0.0076518824955981
0.0048819909071816
-0.023418191155153
0.024916178912723
-0.0096398834804339
0.021315784991852
-0.034055919985154
-0.018052408006042
0.027190870821609
0.026126684986853
0.01250808468155
0.015577929360526
-0.0032590946315655
0.015862749789708
0.0083988360960835
0.019231117912568
-0.032271076459438
-0.0093143815839929
7.426080160907e-05
-0.026376463323166
0.023011379858612
-0.0071311148515503
-0.0038092578262357
-0.016954976267048
-0.013969295225771
-0.026795397146738
-0.017903028089287
0.02141940713461
0.0077731399796903
-0.010250182040701
0.017713937026981
-0.013222530700399
-0.016091268958657
0.032367006044037
-0.0061677236475849
0.028129203062105
0.017485769465566
0.004178595812326
0.023423511518299
-0.017984058857629
-0.015710090835845
-0.015003884693475
0.021956782122808
-0.01570398999112
0.024766089444581
-0.023347828553856
0.02405546211438
-0.029616098534981
0.018759030931895
0.0064997040566855
-0.0011467781483329
0.035246921836265
0.017847467579746
0.016372607854594
0.010653822483229
0.022438149649783
0.030084284737573
0.030760109058714
0.015617972988236
-0.019941611514826
0.0047764053534982
-0.021368493176331
0.017122848308645
0.0074657977093011
-0.0042637002687635
-0.013268835942394
-0.010630243674054
0.00095239364808159
0.0011635499540716
0.018392653553747
0.0054279333146821
-0.0030200715409592
-0.024470509861463
0.012105507609834
0.00085690961818078
0.02125745464582
-0.014295148047885
-0.022625873131411
0.023015607763747
0.015001562606942
-0.02693970985378
0.034364385297522
0.0179419961891
0.018276357491102
0.008218500131209
-0.023680846406413
-0.0098118225411911
-0.024679845065943
-0.022996159170621
-0.009161678325784
-0.0030373561894521
0.010633616808004
0.0042682873816895
-0.0092426978018401
0.035100865011503
-0.019216018346404
-0.030953891725013
-0.018329697145548
0.013225711815591
0.031626624387822
0.028613466919134
-0.017090799336854
0.0056051518102842
-0.031174833221095
-0.031204170697103
0.031307833452177
0.028550300364649
0.023593846642013
-0.034852065046185
-0.023283895570785
-0.014063465059735
0.016266845499298
0.0065492641879246
0.016458260826766
0.025516020882476
0.020394318171644
0.011573544753316
0.013667116590243
0.0010425926718329
-0.021673568441266
-0.033681852510199
0.029952122879747
0.022964952297376
-0.0069930775290621
0.018760739010759
-0.019877428122397
0.0019790828227997
-0.018429739217806
-0.006393954041414
-0.011271994743895
0.025688069207328
-0.03024580206589
0.023264190814059
-0.0030373597650656
0.0015577003526102
0.024991581249716
-0.025702203125028
0.0083999775649448
-0.011280830018222
-0.0021430438583983
0.025467201385514
0.034039901569486
-0.018454403051042
-0.0091896870206775
-0.0010080924590251
-0.00345976981667
-0.0059710219835064
0.027894637963202
-0.026001969169426
0.031498775102331
0.024055126821622
-0.015507946772102
0.0058981969819537
-0.0018101174750232
-0.034313841240614
-0.0047806098924151
0.0064371669432148
0.025650532267589
0.034151291591115
0.014253251054989
0.025181674847512
0.0041339982666874
0.00053564010054937
-0.00052390919466104
-0.022718120931781
-0.013312682609207
0.012834401634921
0.031482746092869
0.029997137275391
0.0042170950910076
-0.015641077671067
-0.013711859139481
0.025835497953397
0.026690969692676
-0.0089656271738932
0.023863389672312
0.028576667769812
0.035327773591104
-0.025482592206182
0.02305201515888
-0.0075802785244637
0.031805509152556
-0.019223529329923
-0.0025954416986289
-0.019514875553016
-0.028546070364038
0.027731666624147
0.011420942992637
0.024642141535878
-0.016440451893556
-0.00071311312993722
-0.035434724563467
0.024083669729797
0.028328315670868
-0.011167973246691
0.015149551477017
-0.012795177770645
-0.012912411342508
0.01935298416564
0.031318976710151
-0.013457412648547
-0.0098754990613088
-0.00071842727317874
0.00027671414760074
0.025916895679464
-0.0062876444343211
-0.033296759772514
-0.0318176643424
0.01222738992822
-0.015073716257965
-0.0058594048688454
-0.033845646739272
-0.033098532951304
0.010082158675816
0.032872093176203
0.025149566254445
-0.01715599810372
-0.019582617279541
0.031344272163031
-0.0084258007118478
-0.0048926209897867
-0.017465201139982
-0.008066265610978
0.0030676760112068
0.029510236644585
0.027017435142105
0.014274339357923
-0.0080427896963166
0.0023959784635476
0.021049364985499
0.024477618896136
0.02429308376408
-0.014592239832772
0.014637411256055
0.014309060726581
-0.029487471062956
-0.030657393259129
0.022367237351968
-0.018266210914589
0.031569773248131
0.010478122891592
-0.01560910709668
0.03347888843356
0.01110905184344
0.031565513046059
-0.035703751624429
0.027296966523863
0.010129184062992
0.0089252807499309
-0.017527200797174
-0.0034098428108596
-0.0058715739952666
-0.025323645444587
0.032333212122986
0.012399456330708
0.020174891820976
0.0042591540009848
-0.0029391182220674
-0.012136801312278
0.0028190696279385
-0.017553340843213
0.010964541579597
0.0032481736603326
-0.023854326872554
-0.001335556918223
-0.0098104550436671
-0.015489561716095
-0.012661957813959
-0.0073805839887687
-0.020973482252365
0.0077439791057259
-0.017048958356359
0.021254560926796
-0.011113454670911
-0.0058560015001733
0.010753732274419
0.0077287606296263
-0.01066563023986
0.029942609436278
-0.010212704522668
0.03368325253749
0.020916878694801
0.034414645899752
0.023055390305152
0.0011842040444857
0.0043718874554283
-0.0028153003160177
-0.011169249358188
0.0030723626924945
0.003866069417979
-0.019027327736174
0.013773865598653
0.0218403604314
0.020581553723397
0.004247708512204
-0.02094734208991
0.033455867968899
0.025748386363765
0.0025852983318535
0.0019358517768394
0.034827833795654
-0.031360389232369
0.026488073403016
-0.024477633364898
0.0073855490856139
0.014523858487207
0.035102566138708
-0.0036895352282694
0.0049869656463021
0.031578939125341
0.017580953260352
0.032160120933051
-0.013915015883478
0.033818950893224
-0.029394377787997
-0.026080550077105
-0.016270383560498
-0.018112590802567
-0.027821303195586
0.032403039779248
0.013189815566875
-0.02708856398905
0.017126608390494
0.027238291122818
0.0098837566329166
-0.012284130107478
0.033579125235389
0.034306448900939
-0.0245950924665
0.012529361743613
-0.0085658272562016
0.015718086373194
0.0020543516147882
0.024187860644556
-0.022042026261001
-0.017124225352226
-0.021327243186533
0.0158010249392
0.035263662642267
0.032094767283914
0.01032911448939
0.016791789875632
0.020427978098659
-0.00078275734891316
-0.019047920874852
-0.028319656965323
-0.011809929772945
-0.031566586661419
-0.034365627848144
-0.0044278286264411
-0.023762881755829
-0.024845328930366
-0.010785133661037
-0.0040150865513299
-0.025874383997039
-0.018783613091468
0.030005588329264
0.016935743208575
0.026058605689156
-0.020634339806358
0.027741124221523
0.035038872189554
0.0165715973791
0.031966781127267
-0.021452126691916
0.0051469324722088
-0.018536346864754
0.02106008094935
0.0095416352851316
-0.019086650057164
0.024421849271416
0.026033520266148
0.018265152682683
-0.030498196836561
-0.030947867548093
-0.019041653522956
0.035199660392079
-0.0081460583023727
0.025764868145676
-0.029957338685303
0.01189540955238
-0.0023843677315329
-0.010305078966277
-0.016915031592362
-0.0071520518145657
-0.011806128879211
0.021992770672244
0.012496743384483
-0.029121562289739
-0.0086165472000305
0.019028266309761
0.00067981129645237
0.01283102409382
0.023043880239129
0.0011134279692279
0.011314839590341
0.0099208143572988
0.020684605813585
-0.0001257690933666
-0.022346773434297
0.034442230709828
-0.010021780634166
0.010035547427833
-0.020025138177776
0.0030373614447724
0.0096031707778041
-0.033323335128703
-0.033334351577131
0.016353497913639
0.010052283211345
0.0068162584377985
0.016213878939327
-0.011011618788221
-0.028736858146398
-0.03037887094875
0.033336930309555
0.022785429244063
0.018375904964549
-0.028047210869512
-0.018663935712539
-0.011187838523516
0.016440796166924
0.011546584361765
-0.0018967397377959
-0.018539064347611
0.019154545435283
0.024667484635886
-0.030959399217474
0.0075764775642061
-0.011843896803579
0.0049680886025141
-0.03431155958346
0.025051436004495
-0.030298039566592
-0.032833995214397
0.023049353937885
-0.016131673324188
-0.010051541895206
0.022281203884631
-0.014015191201387
-0.023984566430694
0.015881057778772
-0.026210484959717
0.02486633389656
0.017581944669863
0.016887312721727
0.012147950008512
-0.0026950568260093
0.015633201525946
-0.027372656888994
0.034071013131844
-0.0055909982849179
0.025614015525207
-0.019842220753032
0.018268176986437
-0.003558032464103
-0.025472514198295
-0.032313574870516
-0.022096754800129
-0.034178540992018
-0.032526743265667
0.020768202891174
-0.012150730455427
0.032203170487524
0.018706195721669
0.0014929096048166
0.017264293889249
0.027389882381872
-0.010601137199306
-0.013464930251108
-0.027827751240693
-0.011964318026522
0.005724983622453
-0.019563930674589
-0.033853309229016
0.011972962063737
0.01757727012903
0.00076145179835813
0.0056779436667317
-0.022867636372601
0.024974352397424
0.032035329977849
0.019769698215116
0.0029800037653851
0.033712972404568
0.00059788022190332
-0.033713012434808
0.0089198893069157
0.0024221877600732
0.01006563739585
-0.021006079473799
-0.0030362071037026
-0.03518780937884
-0.011982411994333
-0.017393122560212
-0.0078044488992808
-0.022675037117941
-0.028744787227229
0.03053636662662
-0.0015056402522272
0.011645930353552
-0.017611607559957
0.021759153310476
-0.023090860706621
0.0044144555161308
0.026690145488828
0.0099747878931729
-0.019134732445569
-0.035215244611858
0.012137621208759
-0.018025625996026
0.013457486089984
0.0070402332515057
0.019718817701297
0.017187269787038
0.0056633241474628
-0.0023522073003863
0.0028015318592744
0.02695396780369
-0.012857683052841
0.010375545576348
0.0070486228048269
-0.028206311149656
-0.013732300988132
0.021090486569197
-0.027126107830554
-0.024592359733236
0.0093458528530651
-0.0031620596502242
0.022076655960908
0.034561301348731
0.0064045143912413
0.013352455754232
0.0140836956811
-0.016592094608183
-0.027222429102819
0.035693684942089
0.031710465821171
0.013042329527837
-0.03518938198353
0.033549518839988
-0.023226397561042
-0.023546268431736
0.016574492062708
0.018490921373346
0.021532929934827
0.022479000251873
0.015498410993522
0.026827298969563
0.03527423317012
0.01702685953517
-0.03258673984757
-0.016258307882319
-0.029000862385146
-0.01304190938494
-0.027180915249379
-0.01947363981578
-0.0065165495865845
-0.024561570491642
-0.031127572358985
0.011247888789512
0.011253282510942
0.024895324887309
-0.027235553666417
-0.029882289302934
-0.028073067643813
0.0019131061687533
0.024494439114018
-0.023507757428368
0.016147199951644
0.028866275529643
0.017434471735864
0.027559359923803
-0.015972660604997
-0.031463952884743
0.022460842804451
-0.021756562437596
0.024012399055729
0.0026217103337071
-0.023450937953645
0.013676112118576
-0.019909272419422
0.018881012868535
-0.0089119073236361
-0.019781757927766
-0.017927435060431
0.01493298094387
-0.006819733784401
-0.021773930073583
-0.020895219956791
0.012501982905503
0.020969562897725
-0.0092185548107539
-0.0075641833245754
0.020339859084093
0.0072882490265848
0.019341536780952
0.026020926589678
-0.018489075891141
-0.01058294095232
0.004803097524148
-0.00012224440329841
0.031726424399364
0.016696928667703
0.012482745240309
0.03180175174826
-0.027159697542499
-0.032410007951382
0.0052361603427146
0.011651265834059
-0.010163129922668
0.00081342415484999
0.024643592619603
-0.017301307542117
-0.003436557067159
0.029052192594723
-0.0043446830074702
-0.019085688799221
-0.013316192680837
0.0027835175860673
-0.015175241794038
-0.015029196161777
0.0017528044824888
0.0072037237862657
0.018855621456169
0.0047964154676135
0.024510277601491
-0.021668363196243
-0.00023271223264081
0.032800762032691
0.0068058607534372
0.011514419240744
-0.011782155455356
-0.025845914779763
0.028305605469671
-0.013631519578796
0.0039879175268912
0.0050790939546589
0.034457006308782
0.032380449402678
0.011999171975601
0.0022717760044283
0.014722545115676
0.017507438231925
0.029399240622297
0.0026491971054514
0.003067732189915
-0.019890283101371
-0.030318967931505
-0.013996121357195
0.031622538359703
0.021384050520802
-0.012456449048061
0.011269750289752
0.028557510813698
-0.027002376637289
0.024923638989484
0.025274346948468
-0.03422857586494
-0.016057219056945
0.015753468348911
0.010682246547991
0.014924182174062
-0.00067359970749489
-0.020106432427253
-0.0084700966087569
0.014570272028712
-0.02200907430545
-0.022157541110313
0.0090640663235847
-0.0097744293078514
0.010319284180046
-0.03252181728437
0.019546077403772
0.015444095762047
-0.011287211091258
0.0089430852759896
-0.0087959127933053
-0.030495615858984
0.017422707535193
-0.033125993330032
0.029665466331478
-0.014079953360903
-0.025219722052238
0.018824160997091
0.014267755672336
-0.0098606060325567
0.019004721394075
0.0098147562571934
-6.4144842326641e-07
-0.01733600694154
-0.029421323461325
-0.032539108136137
-0.029644674821092
-0.024616149902743
-0.026223137825062
0.021137457158017
-0.017703173615571
0.0074093065257849
0.023672686989552
-0.01578464796434
-0.033225614893516
-0.030992106152033
-0.034221557284971
-0.020913144889554
-0.013808492188608
0.0028611017790224
-0.022628020694745
0.028296095186046
-0.01929233161666
0.033541358425282
-0.032568950089626
-0.0077007550779464
0.0035072183070172
-0.02010185652346
-0.0062729396990367
-0.033331174619629
0.0045441847095
-0.0016039424309773
0.014879750669934
-0.0041417959146202
0.024063603387081
-0.0039151644201151
-0.033156953352903
-0.0078293322751831
0.018536970983925
-0.030251068628526
0.029073566680641
-0.004166216273526
0.023670091609737
0.011593230817068
-0.0196166664495
0.029226534101846
-0.00049285801859306
-0.010010976660331
-0.022176173981279
0.026420991884411
-0.021913099934214
0.0028845255229888
0.032016200412597
-0.0008500103472865
0.0041976700470384
0.029103833200809
0.0032384969194287
0.0087908985359328
0.01204479131515
0.014139934792183
-0.010837307449297
-0.0081684080817338
0.0075272913589807
0.0072489353229425
-0.01637700728939
0.0070704263136057
0.0012389357101971
-0.034989333811349
-0.0091011382506362
-0.02919213979372
-0.028985322719174
0.0095670963304916
7.7474097322137e-05
-0.022992297807442
0.028267272265761
0.022071595569806
0.020550383321409
-0.0030612294794992
0.023855204178419
0.0053404741920531
-0.020988270673635
-0.02024405146949
0.0030157790253205
0.032066119136289
-0.033298104951557
-0.012853973661549
-0.011591731188154
0.022557855700143
0.0070240405122084
0.018851448981357
-0.020774545996184
-0.0078022255994646
0.033935029492048
-0.017267715152619
-0.032462073506654
-0.031768944147708
0.018634726908723
-0.0053915256700878
0.02529178185588
0.018729289295152
-0.035320261643002
0.01628167158924
0.0048679718914043
-0.0040260533236765
-0.028089007262939
0.0063219368291487
0.021383208538672
0.0042686194480796
-0.0081111948238686
0.030739723322248
-0.023385485085393
-0.014702437778137
-0.012637732151364
-0.024938668357208
-0.011613184353337
-0.0056055379432759
0.034366774539064
0.010015832044051
0.012388189955215
-0.023776389658451
0.0015266916847655
-0.022676887589374
-0.027595076011494
-0.011115101099546
0.0032655942819214
-0.027924209101392
-0.011898618141588
-0.033724583835075
0.016478347957933
-0.014442389398547
0.0078463502161737
-0.013362602696621
-0.018648041828003
0.00926966931937
0.0050611843554569
0.012865240070304
0.034589221285257
-0.033300492962423
-0.032243685098365
-0.017184902315161
-0.013779994665778
0.027283838584221
-0.029702537260684
0.0010938673679318
0.031287323267731
0.028376145737379
-0.0055203984624573
0.010270727914758
0.017618516559846
-0.020530685549602
-0.007869404574324
-0.028944432868489
-0.031366146435695
0.013565566490537
-0.0078451581232782
0.0017304181320859
-0.025119881195548
-0.020180470576244
-0.0094369581368353
0.028362019885597
-0.030368665599131
-0.00074902748955148
0.015025699694109
-0.022357837380176
0.0090489214718608
0.024905716501442
0.007237245977324
0.0087806006361331
-0.03549827651919
-0.014924931539489
-0.025819216389209
0.010518226872331
-0.0020710066559591
-0.021861358828443
-0.031293465672726
-0.017894683305972
0.021317169236551
-0.011317060811312
-0.030478561812613
-0.01270012851871
0.031336221045681
-0.020754805300385
-0.0021165042583432
-0.014935912231782
-0.033632195288582
0.031969758665322
0.032796688926672
0.022301688258137
-0.020708409370854
-0.01002928998787
-0.017064360269744
0.02703532839327
-0.012854029956673
0.010667833749072
-0.035022715688683
-0.019932123400005
0.0065380190831742
-0.0029414953564161
0.01267240973123
0.012680930767341
0.017071109597704
0.026327755668068
0.0055458476667159
0.031474897022625
-0.0077359655738941
-0.0094210367616532
0.01618990107506
0.021478877020335
0.0066277484875172
-0.030992914540028
0.034200673107989
-0.034447400198717
0.034701576838935
0.017799565851289
0.019509705615097
0.0064255584896143
0.015496122318187
-0.028659710577423
-0.00024593544990888
-0.0088123608979263
0.01812052582058
0.0021574035719303
-0.035291383774685
0.034817412961274
-0.00054693514747279
-0.00039063979472433
0.026303196226114
0.017287612643226
0.0047563275189272
0.0044475148565003
-0.0072175414700593
-0.023748140150149
0.025510216564206
0.0087554450978392
-0.016651785566605
0.0076441004306876
0.023885677734922
-0.033786097624605
-0.03466612577904
0.029661847627722
-0.033553932909854
0.030892352889558
0.016760100327831
-0.023253326287626
0.010793714833978
-0.0062659707785185
-0.012129876313598
-0.004676879217316
0.020255164509373
0.034448886556285
0.031874045646483
0.011076578371493
0.014427808113396
0.02666328732656
0.0075677528345425
0.020059064180324
0.027868610823394
-0.017983505718543
0.03341310990176
0.015685962296889
0.027849400066771
-0.0015217144973576
0.0071117490297183
0.030089044610837
-0.0061313294073833
-0.021724680372115
0.028162764185773
-0.033317180965761
-0.021980800133731
-0.032506056878317
-0.011001354266357
0.0095109260541254
0.014737600826525
-0.031887858939756
0.022374037570054
-0.02543671271165
-0.022028652418937
-0.008319006002109
-0.015142010025946
-0.012760663754307
-0.0017617910135804
0.012962693498204
0.0026907554794369
-0.024537808527904
-0.021502546650091
-0.030208940883832
-0.018431652603405
-0.021043681672641
-0.014759355091623
0.031087042464476
-0.020929353012304
-0.030876385097924
0.027057654124552
-0.0079110093813922
-0.032165872698118
0.02147179684003
0.029706519163613
0.012835268779392
0.00017194599578423
-0.0090472199288862
0.033600607354726
0.011703808791935
-0.012385083029845
-0.0029896520177967
-0.034132561845971
-0.020116402118999
-0.009716483032597
-0.035584742336401
0.011299504649027
0.0035096689326955
-0.025493305559004
-0.01415217578012
0.0031377218464123
0.022392327847358
0.035094018310441
0.018921504878173
0.0037850408282663
0.025956696464813
0.015656689132032
0.015282151122977
-0.027892634488775
0.011163550096431
-0.0060976458480582
-0.017672362920296
-0.0018581835153912
0.0093813473857673
-0.027429765589269
-0.0073953999173162
0.010961816945512
-0.033419050675418
0.030685861594975
-0.016801876564776
0.01187265137144
0.024016729173517
0.012423001944886
-0.031980429859167
-0.03438400981083
0.019095066136547
0.0074257490591013
0.035183311057543
0.023387467289077
0.020061574759893
-0.017246987703922
0.0046376399695873
0.020649943683696
-0.035553060305704
0.024819178806086
0.010190070257522
-0.02519571400314
0.025428781668389
0.012614792462305
-0.0038051377882117
-0.024727405165322
-0.0056266592748995
0.004264609888196
0.0065654447535053
-0.022495218070357
0.0030111356837941
0.024780756161947
0.01917378055597
0.033221585892274
0.023498937188249
-0.027802907595677
0.025730698801843
-0.029327366800447
0.013094081909263
0.02508029873882
0.0071754176834864
-0.031111286720261
0.026860972666847
0.018397002214832
-0.023497988020868
0.00049924529490194
-0.0042751592617216
0.010739090037532
-0.023092630651913
-0.0011682441857244
-0.0091118971218488
0.034890631895645
-0.035218098816196
0.019882683991455
0.020629670055184
-0.013528634278503
-0.0095787233440205
0.029398837875176
-0.033749611100315
0.025072838063352
0.0032842924618827
-0.020872436048064
-0.012846238744844
0.012832597463525
-0.023676582279482
0.018415646095361
0.0014481245307252
-0.031186013532403
0.019065514323302
-0.02820422107886
-0.013959993076112
0.032806956708165
0.015026377730205
0.031612162095761
0.013202920107038
0.013524193316698
-0.035447302074837
-0.021185690969495
-0.021668558391476
-0.0077650291745418
0.02310062156591
0.010177280055359
-0.0016788107542587
-0.027241111982481
0.028202098511559
-0.011572492192499
0.014284729192566
-0.024782505185742
0.017957344368499
-0.026631311729683
-0.030500929869179
0.0071671568688804
-0.0029191751631775
-0.019606001941221
-0.014684482411082
-0.011789597138496
0.013341501621263
-0.030469110834279
-0.0096482644522829
0.023414432802903
0.030489797121845
-0.029668683036497
-0.022031733683044
-0.025036642261382
0.032167115115694
0.017219209245273
-0.018772421088735
-0.010641274591243
-0.014378215818267
-0.01495441719557
-0.011913447657467
-0.022328073707675
-0.028619356669619
-0.021586736215145
-0.026945475272701
-0.01937508935641
-0.034262721443416
-0.016917802326913
0.020955352461897
-0.027461159641721
0.034249342878216
-0.021558800595812
-0.0072156739520973
0.0049181569733524
0.02537095056115
0.0023318654192345
0.031534172128886
0.026785819658211
0.0092591217253357
-0.0091707796590137
0.00041104575419532
0.0015252736629918
-0.01917073423309
0.021820184442082
0.0084060888371563
-0.03099358046893
0.022395344118455
-0.0028513711877167
0.019884282656546
-0.028270915117381
0.0036421052479584
-0.021104969915801
0.028256727964617
-0.027985071164689
-0.02802698643479
0.0078227940580941
-0.010285452141293
0.023274198207738
-0.023045670823194
0.0024431423683252
-0.02712278206101
-0.012968653896158
0.011541769207854
0.0020118997365768
0.031281308204468
0.0141263977691
-0.021673046601271
0.0089376775680908
0.032305938690635
0.0022709161442305
-0.027815216171023
0.030516869521567
-0.0090764592834083
-0.025691528172631
-0.011407454581266
-0.0070372313161248
0.02336552818971
0.025450614580352
0.019920271521966
0.011958789130274
0.0088547346780875
0.0091213687722172
-0.025585180697297
-0.034003602241033
0.02610615757294
0.030279557386945
-0.012549301975274
-0.031227287221035
-0.0074861567533974
0.024195127255682
0.0054702490368592
-0.023734543588944
0.004798444719719
0.014705304239344
0.01041063914142
-0.00032171736737447
-0.031046447044771
-0.016192787526441
0.0051883823637451
-0.020706023438834
0.030139555273178
-0.0023489166051149
0.01984857233973
-0.031421735234159
-0.009251968868609
-0.015266528835387
0.031959859820615
-0.0079129155159795
0.025451184250414
-0.010133058348271
-0.020112639426121
0.020928662918907
0.0094744487765378
0.032070638695067
-0.0082504348164158
0.017889587740813
-0.030424110025966
-0.0099429784542216
0.0064608352757724
0.010435432361971
-0.0049711461178958
-0.030528970295563
0.034969986150307
0.015301000326872
0.02801531303807
0.010471386668671
0.0038878883601033
-0.016884588004489
0.024407912245286
0.028119383862109
-0.03558365556611
-0.024272320708925
0.030950151034631
0.016216080735571
0.023662847300459
0.020888849327873
-0.03187039877022
0.0056056890669944
-0.0005375942315108
0.010726069050309
-0.03183671379728
-0.0025282352996458
-0.024447295282568
0.029092986818536
0.033274323829184
-0.021862725527691
0.015816557038176
-0.0054393216601706
-0.015951870258764
0.00036464307257639
-0.0016779180483094
0.0063909703499771
-0.024218164467519
0.028361038637481
0.00072003884374031
-0.021159808583824
-0.0055374301404559
-0.010074639393549
0.010163044623498
-0.033136421831192
0.011969093482808
0.0010085819521919
-0.005077639877397
0.025657438656448
0.013267828800183
0.005356511284065
0.014556233638099
0.00038375081827065
-0.012582580924832
0.0021581673063338
0.023882292144533
0.020560375564466
-0.025113333382511
-0.010990679397115
0.022484931230013
-0.02322019287385
0.014192832933207
0.0023747654132811
-0.021320976000944
0.012333270494959
0.02828788161943
-0.017420905326227
0.015332157341098
-0.035349266986097
0.0212259296095
-0.034815058261821
-0.030300992674061
-0.0063442955225972
-0.019073488939154
-0.034306180097961
-0.021803941843765
0.0023633046740932
0.016585319785268
-0.016845174981946
0.029934707347171
-0.029705913438063
-0.0064495009303625
-0.033308436961046
-0.020509116534543
-0.0010155337762886
-0.019142445709024
-0.028660573381265
-0.012675526269179
-0.023601954104379
-0.031624550465494
-0.03514480211639
-0.034721844962665
0.014400767395273
0.012918690435721
0.02853295128859
-0.032194438390434
-0.021586781933105
0.03102598640336
0.0038207090359979
0.011457432360787
-0.023002910477641
0.027273885772697
-0.0032636647312237
0.016959164740651
0.017772782527442
0.03121180942149
-0.0035498807472842
-0.0080945668575753
0.011153426802983
-0.0098596869169601
-0.0067208888275283
0.033061277404028
-0.033824061542483
0.027662220510787
0.00090303489871855
-0.030571179763813
0.029615316107603
0.034321143907229
-0.012592727434821
0.026513613993302
0.030032076706578
-0.021074873228957
0.033711418758945
0.029809327729579
-0.020757413302947
-0.024470727375176
-0.019100457945439
0.017523333812798
-0.021324555605783
-0.029359275342098
0.025387976335229
0.029703726326781
-0.02491001031428
-0.020275094779208
-0.025424748276626
-0.01902622075951
0.014153477037326
0.019046851965998
0.024949654886898
-0.033844058534929
0.016820733951006
0.00024540649194803
0.034389517802213
-0.031923050426745
0.016776773978823
-0.024804233506854
0.011785845505074
0.0095950979905735
-0.02291610514346
-0.0044560280595241
-0.022296423175638
0.032304492080584
-0.00036930700298399
-0.005713303057876
-0.012829437569183
-0.012938470180546
0.0045190073516486
0.022729689704387
0.026687485930909
-0.0058724932439093
-0.013298618407654
0.021592345205136
-0.023388411966152
-0.014038123672695
-0.013813192274288
0.0033939363534695
-0.035159446415491
-0.010239039980141
0.033264758231651
-0.0067779519096283
-0.0062808677653915
0.00069231860938349
-0.028706108818629
-0.006638624372759
-0.02955954774682
0.031611801673924
0.0054606896924919
-0.014697659860498
0.010196516090738
-0.012595609246221
0.027920031653983
4.479184281081e-05
-0.03435820969753
0.025163569653939
-0.0047578751442156
-0.016639902505891
0.033321493920604
-0.010751609208195
0.033281428024306
-0.02045867542204
0.012762818069729
-0.030707222293131
0.0074200830921265
-0.007105352423553
-0.0094656206201762
-0.0056045254126989
-0.030031260269295
-0.023531341908633
-0.010340274112033
-0.033277459143262
-0.032138652218107
-0.033965137038779
-0.029476442307766
0.030704886702422
0.034315479536807
0.033570138338421
0.014654884829984
-0.01789698407187
0.025719953734162
0.015388994793674
0.022344759582276
0.03033326908813
-0.014075077787441
0.035039481823333
0.0029261196531089
0.012868246180005
-0.027803363195354
-0.0036652156517708
0.0066303280514798
0.012595087738841
-0.00011585874017328
-0.028567852651966
0.0042837458729212
-0.0027527127780819
0.033636081381701
-0.024489095866946
-0.021949359199165
-0.017968594013447
0.028074469600272
0.033828749204986
0.032754789505686
0.031544906153743
-0.031965229044934
0.024512601766868
-0.027379547279062
0.0086917211135317
-0.017587774982011
0.023166328469025
0.028056835223522
-0.014356490025031
0.0083103681847985
0.0038042348543448
-0.032806563839716
-0.010772219143941
-0.025074701889285
0.028206135628612
-0.023145114587221
-0.012331275369174
-0.032089846009122
0.035015444337789
0.014790827707787
0.012766679499431
0.0066496332541906
0.027542551547023
0.026249046936365
-0.01768753446439
0.021252028278208
-0.022980465204455
-0.0047528166157593
-0.00021439148778362
0.033495289423237
-0.013554376816111
0.032365899549664
-0.015790591498704
0.031683950452134
-0.0076589981825756
0.019223788536952
0.019881341672902
-0.015389330801554
-0.034851583552414
0.023966424666079
0.0095967895384612
-0.017180026841483
-0.01814511010889
-0.0037063765339553
-0.029642502910325
-0.0094748304691166
0.021356625166456
0.035468289246117
0.0028794948011637
0.024601562697041
0.004211370284403
0.0037774706226108
0.01130371653874
0.029102337047724
0.021028024028055
-0.0036196467533175
0.010982654439951
-0.0052804788574576
-0.027561661022316
0.0018155318019646
0.014641594025306
-0.021537160750345
-0.0045211135542818
-0.019366023313653
-0.034052648165795
0.03445311140136
-0.015936529995607
-0.018326555594935
-0.024424058817593
0.032774855848402
-0.0055413359909185
-0.011832962278277
0.0084564294666052
-0.00086409146232264
-0.024430990934239
-0.0027895010342555
0.020371881895699
-0.017563364767869
0.024457920359315
0.01055775158706
0.0018815785380346
0.0027443533430674
0.026965149661659
0.028328701770598
0.034615451253818
-0.033830921797614
0.0069687741010317
0.014896139785248
-0.034070350046802
-0.029959767607839
-0.020553945763303
0.01130779952343
0.023922808601388
-0.022148214180821
-0.014150650523204
0.00037868886387774
-0.024616259333145
-0.025317661630522
0.012714220626679
0.015104043064639
-0.021575197111815
0.0094407919594752
0.023615876761531
-0.030978579722744
0.017477226576635
0.0034312298854015
0.019744161217074
0.025883812207862
-0.02638797624968
-0.018909992267644
-0.0066377414955891
0.026477515331603
0.0054127266131608
0.031058675825729
-0.0079422966477328
-0.034180108441173
0.010718397995723
0.011921029288455
0.0011620264267549
-0.016014053336611
-0.031160005285139
-0.029354869837074
0.01977110813771
-0.029554877480093
-0.024163585705017
-0.0011426360911823
0.022737107871632
-0.03251201331815
-0.022931520877007
0.016317503111038
0.022323183432621
-0.0074219441739842
0.024716278737677
-0.0078318915828796
-0.020919259953579
-0.031506671620134
0.0088010640216193
0.0094507080170193
0.034351138647513
0.025488436571322
0.027270717762544
-0.011104113754949
0.024159718221719
0.027255043237736
0.0075985866299431
0.020134316640906
0.028584201105072
0.014274741090568
-0.035591520934499
-0.022719970771245
0.033045241958462
-0.0025919653042885
0.032024150331771
-0.0014851261761838
0.023065503869605
-0.027155273211455
-0.014009831755954
-0.011135574114243
0.029714126455864
-0.02569210695635
-0.017946817097254
0.0040391975115719
-0.026930580564242
0.030275438113936
-0.032341761481283
-0.0036009219142475
0.035028403408692
-0.030010918953589
0.011146406709616
0.026539827380995
0.0013706648190107
0.013437736546621
-0.017013624293863
0.009021679754369
-0.030564797509994
0.033543241293436
-0.025820708168404
-0.0037964559326481
-0.033186552015
-0.0078997842834464
0.003458576509729
-0.028755628503859
0.0099660775324862
0.022976248342145
-0.011487823096104
0.015336795676766
0.028616616718604
-0.003900843971808
-0.0041532522965489
0.0086291539815388
-0.024105759370806
-0.020439014054968
0.033915230122927
0.028663222910836
0.016712982689829
0.011100591725803
0.024055920890532
-0.009031594980375
-0.018113286217808
-0.017077746917494
0.026851651258767
0.0084269578967776
0.0063221899493198
0.033447539334052
0.01631460756263
-0.0028800557567073
0.0058838108587744
-0.032457353663631
0.019909271853976
0.0044341524397688
0.023764136230706
0.0060483965290976
-0.0069014415743628
-0.025705518084578
-0.027591142936477
0.015538095197241
-0.0011951241509191
-0.014692318259871
-0.0033560870880527
0.0087740946993498
-0.012402193487755
0.0205543064346
-0.0052352798271126
-0.028970980517832
-0.0044394375789644
0.018918972030016
0.012441165362751
0.0023316241567954
0.0097222217757787
-0.009963914652222
-0.013315199076065
0.013230530162608
-0.033457598782011
0.0063838907184878
-0.0090587308597086
0.016394636227882
0.022359162635569
0.023123435709359
0.013028617582417
0.0040237016343911
-0.026042167413315
-0.035618490755691
-0.018129071087709
-0.034250094538688
-0.021301074868201
0.026238492357412
0.023747179241452
0.017297432924222
0.0086291098102395
-0.01082755605291
0.006681660722409
-0.0017950666203563
-0.0059516582405195
-0.025482678586351
-0.0029279064120991
-0.0067389895806887
-0.019239232443007
-0.0043132514859151
0.010572522196786
-0.025853566941805
0.0058283316403894
-0.013462827823657
0.0041141426523349
-0.0069502970436588
-0.01169564862669
-0.017090873692983
-0.017999207301598
0.029217511398851
0.010284803358705
-0.033135984991012
-0.025570016620415
0.035020010828573
0.0053439645063398
0.029792472204593
0.031437004084832
-0.0200047130763
7.7158927784433e-05
-0.015148163307458
0.034510431628275
0.011704771430232
-0.008574318290422
0.0143776274386
-0.034739145510165
0.017726196159076
0.034879633940623
0.020025031624495
0.017318911085437
-0.012047443272812
0.012831512106849
-0.029268111385006
-0.0092064873481702
0.034888257122865
0.019728873889627
-0.024667602315146
-0.0095790651726669
0.0088218930011083
-0.025693621868933
0.020811190745527
-0.011302576965785
0.016828094958328
0.028672995860688
-0.013604093010404
-0.020608359648447
-0.0049408430100552
0.023713314423471
-0.0033923789492941
0.017901464598253
-0.011488284383501
0.0056392912686403
-0.019342149108914
0.0169492463548
-0.024947260157205
-0.025697207377691
0.017711857034426
-0.004529105482756
-0.017487186589278
0.029705682835941
-0.015032193690006
-0.018740661026511
-0.025305711863829
-0.0010624676942825
0.0090361284258376
0.0036097612963723
-0.012066356255673
0.024008696083911
-0.026637708202803
-0.01230793567707
0.014581142558849
-0.022905645060486
-0.034050426379378
-0.018262005411088
-0.032952227430152
-0.032304246943178
0.034847762419044
-0.032366147214946
-0.0051747638665672
0.0076191021861242
0.029462135729513
0.025782863459816
-0.01999552597824
0.024843892431818
0.029238862417904
0.02706036287626
-0.014170412123869
0.002030803821981
-0.01255889127164
-0.023952431378088
-0.018619140127807
0.020372152411645
-0.030703987576999
-0.027966965073054
-0.029305379139259
0.01668764702377
0.0058580397661509
0.019144774115245
-0.021882578946783
0.0007057644127469
0.0083440220582166
0.023880943589445
0.014673016200374
0.031993269238488
0.026687655398356
-0.016534392339444
-0.030040718814624
-0.02755009728883
-0.018778977865752
-0.014332050208135
-0.0063201922291358
-0.0052385298601751
0.0044689619847174
0.016760890804497
-0.0093849324454953
-0.030005044237311
0.022388462459535
-0.0006022731374417
0.013109941284971
-0.00069863758315997
-0.0059918166038447
-0.0255617860239
-0.01419794191939
0.028813895486694
-0.015220163972117
0.03407573214333
-0.0063996252969706
-0.0046474286854001
0.024100258114881
0.0052448865026236
0.026714435978127
0.015553379198536
-0.021641722647473
0.0038841604587755
0.026722704675714
-0.028385920001061
-0.01043150292909
0.033581780070173
0.033923716883042
0.0084589014461796
-0.025191885069944
-0.012910017144999
-0.033009036011728
0.0029419878098582
0.019770321203396
-0.020196914440021
0.00044145948985325
0.025912192733293
-0.016797846731996
-0.0047990603405716
-0.026211909317811
-0.0026643266402451
0.034694537603562
-0.021800843533128
-0.011511316439802
0.0065769092346142
0.031556341863636
0.028940885543956
0.033783856114107
0.013383640841182
-0.028093117555337
0.015441771563409
0.033372641973464
-0.034985234112745
0.0087721701711416
-0.020913755055517
0.021763452628095
0.017583999483447
0.021439026941412
-0.01084584601423
-0.028028172158104
0.01839567719227
-0.029858979313368
0.021767706211124
-0.035585079591588
-0.029710840999282
0.0038133197064911
-0.00080210544235472
0.022469873723042
0.010736229746336
0.00676452809213
0.018261303709421
-0.020206921783808
-0.032373872951471
0.032751284074038
-0.0022778707290334
-0.032388887916958
-0.028647135427621
0.012227417269189
0.0031781043092321
-0.033594186933312
-0.0074138864209609
0.032053275183508
-0.031807653423
-0.0069780928980825
0.0128178966531
0.034723274725755
0.017784434869619
0.030343694279769
-0.0048978313238227
-0.031792621078369
-0.014134357151176
0.021619145691927
0.0129810551381
-0.0023168557922223
0.032347723509052
0.0098111033772251
0.011224976424793
0.0068974944130917
-0.029761050927586
0.020802111880455
-0.010419293639383
-0.019624744957712
-0.0096920095883044
-0.02524211560376
-0.027262933336065
-0.026309970267383
-0.026808467277858
-0.0011883008493377
-0.004877117828333
0.023014734881664
-0.0098901983915961
0.032439348803434
0.026655924589639
-0.021001837731871
0.029641874932817
0.030041543267933
-0.003240579389967
-0.027031034380863
-0.0075609398440325
-0.033514700863244
-0.031197887446199
0.00084387486068798
-0.018580320773513
-0.0075765646761283
-0.029241321758101
0.023792026946986
-0.0016073783127857
0.00029597211895244
-0.0025295357253136
-0.0058529522669102
0.010929371529658
0.022908652051618
-0.016736246495774
-0.0270017285033
0.0011889842239075
0.030585965989823
0.017176557299016
0.00011154377300825
-0.0017156921925821
-0.034638489962422
-0.012744275586946
0.024535274332655
0.0021018648985773
0.012078932187121
0.015901082893834
-0.028790399615121
-0.014560686091759
0.0040854919269415
0.015007940919272
0.0061778241901525
-0.0025049243621262
0.023556302551047
-0.00092741225047836
-0.012483401706309
0.016769701947591
-0.0017109018683966
-0.025373387266882
0.0014513376268691
0.0035786823635655
-0.025269005480888
-0.016473502735607
-0.01248834854258
-0.017957932781428
-0.026762165944092
-0.032227629030656
-0.00045847686539803
-0.0033541662518733
0.019873545338799
0.011147518376155
-0.030757012311369
-0.016317778316859
0.0032877407169768
0.015392342050161
-0.026409457870094
-0.013326842870031
0.0062296797987074
-0.011639040212945
0.0254635332884
-0.02917090918137
0.009345556443025
-0.0035736739934821
0.029996141758082
0.0053826153744012
-0.0079478333937004
-0.007944228875983
-0.035557798725287
-0.03411968506407
-0.0096260963972392
-0.00051817765259849
-0.029538208884852
-0.013726171837854
0.0077112883528961
-0.016198052741986
-0.016186674408215
-0.0017855164395379
0.0038170343697337
-0.011447568989492
-0.0022332871864949
0.01844634401745
0.026186595487941
-0.0033799123318334
-0.020581454554174
-0.0079145189208378
-0.0012241374767785
0.021340180587556
0.0013416758405843
-0.0054220007566203
-0.0058572280353733
-0.0095418123362054
0.021108401074473
-0.0087356889021716
0.033738383125248
-0.024577469731282
-0.00070298496367676
-0.028508116125262
0.023614788876979
0.018232442771218
-0.0040069652521717
0.011689053815124
0.032102715373704
-0.013743002583007
0.027239826840482
0.030834051048649
-0.0007764458589788
0.031668482764092
-0.034123939179283
0.0061704157519021
-0.011823030388249
0.034346534637734
0.028325439164681
0.033599716295222
-0.017401274892368
0.017225745815917
0.011166573834739
-0.0060837286457952
-0.029079224032882
0.03183478136946
-0.034915916821254
-0.020646918431989
0.0083442044145028
0.023625453584827
0.035618250341421
0.030846100766212
-0.0015237376792356
0.033580611958834
-0.00018949158090566
0.034739896638452
0.0068391119795186
0.011828014011761
-0.012152429204434
0.01909919292666
0.014172588142433
0.0094501119040485
0.024432503086116
0.030736893931005
0.0093632930823203
-0.0018362432851323
-0.0067996987906684
-0.021085066920412
0.003997471349846
-0.006422410486266
0.010354313417338
-0.03206477799852
-0.012189328254733
-0.022959589875037
-0.019200699603451
0.0076100875490478
-0.0089171004448352
-0.019571464974433
-0.023761787884203
-0.034778852398241
0.010688511904196
0.0067485867600356
-0.013146426628477
-0.030613711153689
-0.0039884830392631
-0.010488808687244
-0.030200677424935
-0.017499297208685
-0.0087130664116038
-0.017345362858448
-0.018704301943736
0.033726988692901
0.024843221979349
-0.018633238538834
-0.019600223134538
0.0020975942191269
-0.0013230969863279
-0.032084268002239
0.010541767397496
-0.0097921833761835
-0.010953195875378
0.020370814749705
0.0050160473245861
-0.024372578166159
0.0017507203987667
0.0076051216206646
0.030176420546403
-0.0042130682351334
-0.0023522910528949
-0.018716724722513
0.012795039602289
-0.005555765736582
0.028697596181051
-0.020895463364598
0.017600218649022
-0.0040548756785159
0.0090933438124401
0.021700015092002
-0.016752278349096
-0.0065344506542065
0.021165848144197
0.0078866444528103
0.03474085691518
-0.018767604620994
0.030849210635227
0.0093552957155875
0.00040331835459385
-0.030521563370712
0.033302783417249
-0.028591575849402
-0.031789485681137
0.013750550952474
-0.017176688133207
0.00786937911263
0.017572441919973
-0.020122263514038
0.02175762544253
0.011958978787464
0.017658629504565
0.032940234190651
0.026800462194452
-0.0051111605051639
-0.010939599064711
-0.033684617124631
-0.010120046740797
0.033296005085244
0.023865492166286
0.026778518571518
0.020382952144636
0.011978024533684
-0.018959711621782
-0.016277912106099
0.0031684444651806
-0.0020993927859568
-0.0063133067118802
-0.032177705051644
0.03279369527341
-0.028223257145977
0.035373446697901
0.032529377129062
-0.022091385376241
-0.024360757321119
-0.03531812483977
0.019505840526628
-0.018323774017127
-0.022408488838534
0.0010596971260384
-0.0088685099201809
-0.0070304003311321
-0.021151320443356
-0.033495034373898
0.0023056462440374
0.0039242350862228
-0.0032624482077413
0.0057875751517713
0.020203012673716
0.032909807067231
-0.011209945693346
-0.011910165194422
-0.022292534737582
0.0020111213005813
0.0094726272259972
0.029494589111502
-0.033984989709487
0.012369094732484
0.01272370699527
0.018852321863441
0.0020371993804084
0.01016328571963
0.026774157104748
-0.018510327541402
-0.012680673589265
-0.026414756164221
0.03503232928259
-0.023811745374197
0.035160452027672
-0.011965016169207
-0.0026035069853866
0.03156195574307
0.0029947251480605
-0.0055151713313535
-0.018273151263462
0.0068011931310009
-0.008417454348611
-0.015527312860026
-0.012285025956641
0.0040608088519158
-0.02128930190312
-0.010318088295337
-0.016394990529599
-0.0018855452903413
0.024095549564143
0.0057273194792547
0.012731001512813
-0.01977025917066
0.030436036143718
0.03152286149894
-0.028741845312262
-0.03330807063529
0.0034847362798506
0.023959898157045
-0.031277266015033
0.02555262124432
0.012737634541866
0.0034109854272434
0.019787308759987
0.026130397754189
-0.022903673483857
-0.0040175824126761
0.031220611051789
-0.015931633484018
0.0041928325247552
0.0071211023688582
-0.014607218110801
0.026955307810567
0.029229946284821
0.034255924418436
0.03280689447586
-0.034716571099125
-0.029596812441014
0.0017719238031922
0.0078293670833643
0.016383568456929
-0.022132877443385
-0.020619808197288
-0.018311088888108
0.020142431005037
0.027128620106461
0.019964338812445
0.019468781105908
0.016966527045172
0.025045871468527
0.009813986968116
-0.0046586999337056
-0.014440814748273
0.021330936961541
-0.0087065467378125
0.03346690942999
0.014727322850376
0.011795507394709
-0.024449434597045
-0.00072617449664644
0.032276972995273
-0.0097138005242284
-0.033240544327003
-0.012516392029024
0.0039627466716671
0.016649498171838
-0.0063776739074716
0.02060663289324
-0.023416649051277
0.021977114574318
-0.010882395668887
-0.0016545649185511
0.0092303448722565
-0.007096950779669
-0.026139378314838
-0.013172564928287
0.014170363728356
0.002668367116712
-0.015849673721407
0.017076337626869
-0.017002974088038
0.023748530008431
0.019529297149607
-0.011794392701371
-0.010173639399
-0.0026945298637397
0.019296813822751
0.014089718727129
0.015591703006066
0.027177321275563
0.0015285575063899
0.021546717816299
-0.02936470849506
0.031812907030274
0.013799403378341
-0.030924237050515
-0.0093280383319195
-0.030984901690057
0.006578254962473
-0.016497217085479
0.01584332038848
0.0020801951510033
0.012829086976126
-0.029960344778374
-0.017917348471071
0.035064481531403
0.0087023212275069
-0.027895058621652
-0.030301556323788
-0.010327039935094
-0.021709261329046
-0.023367594561673
-0.027046991661856
0.02077618828376
-0.016272493272222
-0.034513028654536
0.024154564848037
-0.016050647012889
0.033104571497201
-0.02505535896801
-0.012692884492156
0.009197970353333
-0.012162541571472
-0.031919290328265
0.0065964374225587
-0.0031957785665457
0.027878235160772
0.025552454188333
0.022513346480472
-0.011860351776704
-0.018724190736456
0.010084694317941
0.034194302479071
-0.0053600482975266
-0.0080552219213652
0.011353792788993
0.011391860832061
0.00094950160876449
0.0080318760093568
0.02020643204118
-0.013422810672117
0.00086363253649324
0.0042245366577325
0.021562679753905
-0.031075923304473
0.030207882036588
-0.032061585275057
0.00060098155933831
-0.0085267117413293
0.012113481011641
-0.031760553197403
0.011238512067523
0.010008950867424
0.026366530518447
-0.030228870471806
-0.0027282948140055
-0.029494466958568
0.023163118133587
0.02836026008507
0.0064059425744095
-0.019857587093221
0.00047931123325335
0.024723679858393
-0.016578290212367
-0.03395215377012
-0.030731401755475
-0.021636913763359
-0.010207423790624
-0.011183994439697
0.021342861399587
-0.034686152490654
0.027699835748146
-0.027702008058051
0.019245726671735
-0.021917928708717
-0.029936916028549
0.018083236945261
0.0073252258589491
0.0097396258164996
-0.0069279494595581
-0.035643490497023
-0.03144182750423
-0.0074209524651191
0.025197086589677
-0.024881991507885
-0.0049522751277047
-0.025360073162509
0.017016721357192
0.024242218201315
0.00028689203983439
-0.021483959996008
-0.006768962584569
-0.0080247090331146
-0.029392882333403
0.002947313029186
0.025666603386136
-0.02661101902569
0.031356998669383
-0.029086402168364
0.0015129344038931
0.0053682388638013
-0.013513688447087
0.0022964960828956
0.011754194557268
-0.02151161907906
0.031043438157732
0.0018084678033899
0.031052801275759
-0.03301949584524
0.02018963395884
0.0040903516180281
0.031636927044019
-0.0076808406073334
0.011581805617815
-0.030634535227104
0.029503376139993
-0.035503156682742
-0.029459921343784
-0.031327992128874
-0.022540698260335
-0.022488192006546
0.034667483830292
0.032872880093886
0.013052598124237
-0.02639443836441
-0.004149155973989
-0.026455875103628
0.027603596332483
-0.0099629838285702
-0.0039550292006295
-0.030008858402393
0.023926712788774
-0.006279120221734
0.0046979895227456
-0.0076568242095943
-0.018167617231874
-0.025057771259786
0.035387975130496
0.0085742436349392
-0.00035340229182371
0.026075830550066
0.021361508074083
0.031269959057681
0.0096632136431124
0.014299701500152
0.023525803499589
0.0045534135008763
0.032045153102704
0.022669172629581
0.011927200564449
-0.0030309578370569
0.0036604434551139
0.0086678318579548
-0.020425281038375
0.032395428478984
0.033609183089408
0.013339919819763
0.0017626880268965
0.035006590836149
-0.01455601534274
-0.01521898649766
-0.0023734148625018
-0.0094184607234118
-0.014284236705862
0.0082395056129566
-0.021751582323174
0.0015460149983742
0.0093241401482373
-0.033206891850568
-0.029683316309404
0.019261565558346
-0.035327794046939
-0.028300507709251
0.033109128824435
0.021684391257752
-0.0007846480335242
-0.0093892715106319
-0.025618685276381
0.0040868303372658
-0.029544545437342
-0.032920844187694
0.0069895195275811
0.014708724504869
-0.011612573904651
0.0071294974103304
-0.0030279037309811
0.03339071812973
0.0088282148520063
0.03255222034308
-0.0099252413160035
-0.033106756612792
-0.030270849304673
0.010251602723396
0.033687140459993
-0.016654250827352
0.014159988362475
-0.021021558637066
0.012441847756106
0.023047284971523
0.012084178210768
-0.013560210254842
0.0030854647713048
-0.017690400509829
0.017285207319739
0.0037066924851388
0.023809537940126
0.013748270758827
0.030873064300977
0.017913479241543
-0.012285258770654
-0.0039511379852359
-0.023477630207448
0.012021646502295
0.010497618682816
0.027101681301636
0.014545179836984
0.023020860872098
-0.029664643158737
-0.0088680277611794
0.015985486180788
0.0047832464001008
-0.022113057635059
-0.0013525589768376
-0.008365279579136
0.0057092413272975
0.0093478599363672
0.0018260569943647
0.0037511497835762
0.020987939987598
-0.033587710200144
0.0024000514697816
0.028505003794895
-0.0029281852766871
-0.013547663410593
-0.014411209417241
-0.014395856231983
0.034389750000888
0.033003314514644
-0.024334180501423
-0.01547277732087
0.022064892857868
0.010416775193465
0.026765132755307
-0.020087287062779
0.029451290727593
0.012368300646943
-0.024490228388458
-0.027582686078469
-0.025655442948586
-0.010664502275176
0.029002433659376
-0.0052701090296198
0.029087582320374
0.02348197070283
0.019610399380326
-0.024144107043477
-0.0099696365983358
0.034489911731466
0.0026371162717364
-0.010279473266564
0.016736513968291
0.0039364394365943
0.0098254338372499
-0.016167061420025
0.027701878271598
-0.0079006311882819
-0.0082152491668239
-0.013962680756647
0.0020526721408325
-0.0011494990404961
-0.0065603139145034
-0.0267523094413
0.018882259077925
-0.0013502491638064
0.017014677403495
0.0086851173712473
-0.0070908186025918
0.034921707469039
-0.033499799968143
0.02980967799002
-0.032962510129437
0.031529893400148
0.0086287036538124
0.013041983009316
-0.0058820760875408
0.018820846303632
-0.024914477502794
0.023744579221654
0.032224495479438
0.020097446012577
-0.024520468864856
-0.022826542395965
0.03449060089354
-0.017823772421772
-0.034374742635659
0.023759399823445
-0.03537075559143
-0.0019009596767968
0.0069755183067173
-0.0035268419056333
0.030154720830199
-0.02025717192529
-0.0077052240958437
-0.0049072800237419
0.017891990769255
-0.01014138199389
0.023141755539525
-0.011287858377078
-0.02231344638858
-0.027533124151107
-0.014363193335677
0.021560006658547
-0.026371320692955
0.00097649338256035
0.014453438725988
0.02279031454652
-0.00068737107462117
0.027523590717465
-0.0052098103998495
-0.032039124917771
0.033356240601279
-0.032593635276758
0.0057672617591119
-0.0096391780867374
0.023598623911052
0.02663488143922
0.020239186489822
0.035174900283372
-0.0331216734069
0.015219032398558
-0.013050690725712
-0.010698105507929
-0.0049906450190714
0.007988452562131
-0.0058591188363997
0.022864851002981
-0.013063915672579
0.0024413229964141
-0.010367782354089
0.022099459843178
-0.014884917946932
-0.033219108923471
-0.016798832387264
-0.015709511652988
0.034585485118441
0.019736973701843
0.0050167942286602
-0.02472322261227
-0.020478605292737
0.024710371541525
0.0081085520962785
0.011171912940751
0.016560964386112
0.019095616864174
-0.0094767470644521
-0.034988640691154
-0.029768306944918
0.013136054688532
0.026353226691884
0.015213969729042
-0.025764260208234
0.014069871461418
-0.029739329674547
0.029908053061393
0.0071455293468067
0.013602453882673
0.028024165691542
-0.0046270870537098
-0.0070898193932538
-0.031656199517394
0.0053880874267114
0.019562613302177
-0.031313850644178
0.016520950710401
0.0229672748662
-0.0039066824829206
0.022614750994502
-0.028773677319155
0.015866625605018
-0.0089238657715863
-0.030645801120305
0.035594813841661
-0.017279810970649
-0.035156219499186
0.027170284484912
0.01929210520549
0.013737217905665
0.0028379732476813
0.020965227092217
0.017510666062922
0.0019790482474491
0.010570233039159
0.017320282507821
0.029347842027034
0.0019896613167865
-0.026896628900431
0.029445260696645
0.035430793966433
0.014461947106091
-0.022145957070669
-0.028240010641249
-0.0041464454594201
0.0031892208582056
0.028823627790968
-0.016150592111184
0.025215878799957
-0.0096362188425181
0.0082366711825931
-0.011250603095894
0.0079886897001415
-0.033572655753233
-0.02056522141876
-0.030172046174162
0.0085441161479269
0.022021757654979
-0.032560124560925
-0.021973711854246
0.014764805025022
0.032627929334662
0.027135376336186
0.023533371177369
-0.02106415497006
-0.01908479388138
-0.031223452650011
0.0011642063369176
0.0030745035370014
-0.015260629788307
-0.0083229213321049
-0.019263335137761
0.016556910638298
0.012554915372415
-0.011503302974493
-0.017111266896661
0.017507693264633
0.014976087558482
0.022760290702406
-0.023282844190752
0.0070410848129541
0.023767648164981
-0.016653309576213
0.027793343478282
0.0062214732669028
0.028773078611786
0.027601261822773
-0.027933406543785
0.018853388360835
0.0020217981987766
0.020002164877951
-0.034977100589978
-0.034316389206132
-0.020478521107829
0.018518545748001
-0.032237522304058
-0.032654808019288
-0.028986635701066
0.01542252109253
-0.019676721871032
0.01788495038636
-0.033644497810331
0.0014101317252165
-0.028174871329351
-0.0041160595470241
-0.0077770454642762
0.012549908682039
0.019860272678281
0.02944102096704
0.028232030986276
-0.0045602645924581
-0.01425407007004
-0.021464082778298
0.011519368870982
0.034014831845915
-0.012910346982868
-0.035369005536528
0.01324596613579
0.031680635276384
-0.0095507278373199
0.00071315964617367
-0.011764758432816
0.0010226595581376
0.00050452892069838
0.012836876009325
0.029051640569898
0.032228400914132
-0.0070798691761281
-0.0171297502072
-0.023696369840764
0.019691713137685
-0.012337460182607
0.020050783026298
-0.016489314663756
-0.018045571316699
0.0024200174791206
-0.02935422792299
0.030099004972726
0.012971721074012
0.0085910265500258
0.0284470745828
0.034099655076196
0.032238788520252
0.020505216654523
0.016334714434509
0.027496256715884
0.007952186062799
0.010902580405985
-0.024268616423277
0.015310522335182
0.029398749333008
0.020108494358802
-0.018245191812249
-0.0050546109975715
-0.015966521093755
0.029603913925322
-0.010233623324893
0.0034892473070483
0.027157877405573
-0.033775460723388
0.0035988193204893
0.00017671988877867
-0.001306158906248
0.024166994528579
0.024563982051664
0.0285911938741
-0.01352417673583
-0.0017090132293691
0.001876875275879
0.027670471446722
-0.026310138470892
-0.020645648706704
-0.0044019019863169
0.026492996424037
0.030090828459444
0.02554336065493
-0.021646064872454
0.019493726647592
-0.017116598967862
-0.03122898811541
0.034771702634836
0.02535503558881
0.0096553690798048
-0.011018070608511
-0.024498545614603
0.004655329410785
-0.033236114690746
-0.012288623123563
0.0012577547957855
-0.031516502079155
0.0091382089137499
-0.01685882313177
-0.014341839738855
-0.013051354176631
-0.0057768903040726
0.0046826190248664
0.0044042152751769
0.028942290493952
-0.03504233230238
-0.022554991484087
-0.0047072621029136
-0.019310141896962
-0.029100168030709
0.01545199577231
-0.024794493219815
-0.022922230668233
-0.026050670837451
-0.023275165036986
-0.014107049010428
0.010315772179248
-0.03086031579213
0.017239429289475
0.013920455422652
-0.017798425396904
0.023365525063127
0.014317803783342
0.024503928293208
-0.017588311008045
-0.019697387004271
-0.01989444240462
-0.0071717310929671
-0.0033584592331733
-0.023500227918183
0.0097968971489796
-0.028602211353635
-0.0077796035579273
-0.028754535630079
-0.016580756288022
0.0094485775501068
0.023132748885213
-0.032144643266552
-0.018512979016772
-0.0089424348469558
-0.015148645167106
0.013885888171249
-0.010716832791721
0.021544645307586
-0.0090775488642976
0.031618849640446
-0.012353733847184
-0.019375619977447
0.015061303939936
0.017758584281962
0.022674292625327
-0.011497225113479
0.03451045622517
0.0080274641680132
-0.025342108365814
-0.031542407199075
0.0013348702840241
0.020837945032067
-0.032186214063716
-0.0022442867713315
0.033480925518753
0.02899865679709
0.030855065511007
0.035159479244612
-0.0090849613438227
-0.023842263950168
-0.035242219488802
0.0031486278333302
0.022233156670284
0.026121195638552
0.023293285397813
0.022357680485584
0.026631524570153
0.00492253696679
-0.0065241584753884
-0.03568997342206
0.035259141520198
-0.025295204083834
-0.011715054744855
-0.013088164451931
0.01711529255512
0.0085323264356703
0.028569773271946
-0.022630296215149
-0.0097851746249944
-0.013128986914775
-0.031613570554847
-0.011895982365656
-0.016271308297291
-0.017099055461586
0.0037374579613762
0.0017559745548559
-0.025823544012383
-0.0044601868971118
0.0075068890749078
-0.016043275578081
-0.028827695974282
-0.00046416980746601
0.031934485820654
0.028769670603132
-0.010573629589219
0.011111215455458
-0.029524032159575
-0.028852325714459
0.00071851160776402
0.028848519382466
0.035628577145482
-0.031917009885157
0.032163091685756
0.013642622623593
0.022184871053988
0.01612643538309
0.027826229709068
-0.029321717813478
0.01406417348023
0.031622793093058
-0.014155561054525
-0.0042617448572336
-0.018895420079519
-0.0084823864412361
-0.017848938454076
-0.0067671666952914
0.0015948112621637
-0.026637828842338
-0.021203443408012
0.024445440769861
0.012551690668001
0.017017091524654
0.03216281461729
0.0010612663546843
0.018392156726415
0.028488438443414
-0.017770007302585
-0.034569273453339
0.031657770625316
-0.0017714252795226
-0.030063996590408
0.016710539082331
-0.011770739087037
0.02185036150539
0.017228988514814
0.014070247782261
0.0091930454530354
0.0038040832483343
0.029483060435658
0.02018236969265
0.013131719248902
-0.0052378959787477
0.0050000404340348
-0.030591261173998
0.032545241427475
0.022717610700056
1.2310803867877e-05
0.028821347480906
0.0069696336618758
0.014429714015153
-0.021522543027199
-0.031266256302063
-0.019750672425809
-0.023891539811822
-0.0063548170728609
0.03011973869122
0.02657679832607
-0.0092116966012067
0.031928679340386
0.011212868183585
0.012815821300527
0.030400559405929
-0.0088999310641416
-0.025103355807784
-0.00061363040003926
-0.031985587091185
-0.01251288887579
0.0043665481997388
-0.02955306091878
-0.008593270738077
-0.024546130843061
0.032732243533246
0.0097377981791007
-0.016616811776268
-0.033442460216715
0.023870679183996
0.0046307872980833
0.024042178311252
-0.016320942202583
0.023438076106166
0.0042638556665874
-0.0079300959893901
0.032811493163795
-0.014840726873704
0.027732109833908
0.0039545381275405
0.01148355825405
-0.004868726794874
-0.0078552915781204
-0.010666208308456
0.0067188335482829
0.030075347583209
-0.026400202985055
0.011562766656945
0.021692884337556
0.034324546244794
-0.034487589146011
0.0071354966910024
-0.0035536901393373
-0.019141368667728
-0.031206414668954
0.032678036518129
-0.032709128306513
-0.01828278807391
-0.01046988402959
0.033436411027131
0.013905374965231
0.017488909319841
-0.018090419188541
-0.019150360969694
-0.0099719556248082
0.029210904380307
-0.028271893155761
0.0082784666114354
-0.020132505534483
0.020492827985436
0.035208809804837
0.0054911076689937
-0.032739723417243
-0.015338792216166
-0.0067277615889907
-0.0032030608771103
0.0087959352614624
0.015775985749704
0.032765534540106
-0.026831558473142
-0.0017167315485754
-0.0027158087052937
-0.0097556161927059
0.0051815558856885
-0.0023942632500881
0.017364161138955
-0.0017682021051379
-0.026024067524954
0.0037998425874061
-0.0093461024475151
0.015876184982647
-0.025292605361236
-0.0010860558166834
-0.030392802054329
0.025792185217142
0.033632038111266
-0.024777024036406
0.0095600123916353
0.0048965008463711
-0.031231533902298
-0.020970628713258
0.017074192924026
0.00015670335518995
-0.009932023190361
-0.025424846547789
0.013502569220561
-0.014612650448856
-0.030365487410953
-0.016413077146613
-0.0094667528589655
-0.0086472408812759
0.0030265753157437
-0.021274652847621
-0.00099379206741495
-0.0055809428616028
-0.019091470998579
0.032478048682346
0.031966375037363
0.023398073839157
-0.015256864966692
-0.021387546456286
0.035103185335174
-0.024200286184038
0.028319723022703
-0.035711077956616
-0.031546811756146
-0.0037491243066532
-0.033227007303919
-0.034856249811128
0.013697515873771
0.027215307744752
-0.0067084652005828
0.0089903415147481
-0.00095903392814632
0.011678651740242
-0.013841786488358
0.0046927806688473
0.016408680073385
-0.028118878203843
0.018463791032056
-0.033525182948714
-0.019209634795386
0.022842913533428
0.007719782680007
0.0011748544638976
0.018151506132978
0.0052176863287709
-0.034290307068399
-0.022653522102961
-0.01725730153599
0.014288376916998
0.0097321729242269
0.0022000406336571
0.00081690755074045
-0.0080109483263056
-0.022856586313407
-0.030647545138241
-0.0091432813787833
0.017946990739022
0.0063996967094551
-0.017632536207592
-0.034570429124869
-0.021590399821954
-0.031572083310623
0.026601311617664
-0.0098968826101295
-0.024519592473683
-0.0031609495137153
-0.032673494757286
-0.033487550249057
0.015851160478113
0.021990505712373
-0.01892357179895
-0.0033923500117713
0.025440824101679
-0.035613270509722
-0.013789514877966
0.023593455403378
-0.00092733596518103
0.019517921992312
0.022263414841811
0.018968790885992
0.0089266882444333
0.028648395739895
-0.023863442025946
-0.022095280899001
0.029229200478377
-0.0077766624911289
0.027441328790571
0.0023777409722762
0.008254686437015
0.03074151340739
0.012570637577612
-0.016245106052208
0.0032042911874929
0.034252998219537
-0.019688960630447
0.0080238570558972
0.0075032582639584
0.0094240832342101
-0.019538575068249
-0.026064295022349
0.0085491593760837
0.028959354152903
-0.0085994938854128
-0.01798710256948
0.00041396363771388
-0.014008496455582
-0.0067308771290949
-0.016338655924691
-0.028665652481972
-0.015527281727243
-0.030423022158045
0.026050710318876
-0.031196142580094
-0.028162349880274
-0.012002670721683
-0.004033671741906
-0.016911655830752
0.020025246610333
0.035271754837595
0.034075327067902
-0.011165486282802
0.012305784022569
0.02621383715554
0.026718259905465
0.023767230350391
0.032894177645046
0.011559006458681
-0.015243510216741
0.016738200626735
0.0155403826419
-0.0025501372625253
-0.027130249954228
-0.022154424356164
0.0020089660870976
-0.035533625033817
-0.0058812923130712
0.030999455983484
0.0063266776435609
-0.023585503621559
0.00089453594825629
0.013777116679453
0.005442668467627
-0.015131634427235
-0.020830108335109
-0.01767781909023
0.0082947549609734
-0.0086012846357854
0.023595703433135
0.0017564444070948
0.0071607566039477
0.021347946953028
-0.028721078481924
0.016130024750185
-0.023772734683007
-0.010135670142647
-0.0082559573763449
-0.031291214948786
0.03462407751275
0.0048264799240444
0.027187050569669
0.0065666293625587
-0.019661582374413
0.0039110599651134
0.031849998049438
-0.023855325133939
0.030566597906207
-0.00094464417946126
-0.0078654414142615
0.033659678418189
-0.028605339898994
-0.030754593500335
-0.010091313726402
-0.01099470256096
-0.030924938768814
0.0013359705917537
-0.02814162820245
0.0076379122911021
0.010230741397079
0.0088637254167614
-0.012067245502424
-0.023168241472117
-0.03407696852394
0.013791679238368
0.017548235914936
0.0045219616066398
0.035651615188856
0.013422942055123
-0.01809080395781
-0.01354865756418
-0.016187448935982
0.032583148052384
-0.03471648829457
-0.013268510029385
0.031709256648485
0.025311435406495
-0.0045929724583402
-0.029764929819586
0.030876730236092
-0.00013928093747901
-0.0133932483316
0.0050709681319339
-0.029774958151393
-0.022202510569644
0.034929806150363
-0.003785608369591
0.017369608677525
-0.0017788445942902
0.028532840677404
-0.0003466927446425
-0.020982772960061
-0.0043698676994869
-0.015421187405341
0.027836256727044
0.0031068728172353
-0.012144452659413
0.0084635443220447
0.021688447566703
0.025396293095712
0.021574992054541
0.021934641159273
0.007691823960548
-0.015303785613339
-0.018864991625638
0.028770260462937
-0.023936031486041
-0.014288759956669
0.028321504958772
-0.014659942144395
-0.019821756402962
-0.018166377591634
0.030572178690428
0.0065070892118716
0.023213680384548
0.0050409364048392
-0.026902418583632
-0.003874055741887
-0.03105266152748
0.021103433150399
-0.029433832853101
-0.023369959455782
-0.015318378307191
-0.018217471644415
-0.019987024865778
-0.020799741930594
-0.027987234527245
0.013184153807483
-0.027910462381052
-0.0088099673157558
-0.016760658539299
-0.022269386864666
-0.018331402097829
0.029897363706758
0.011579145344773
-0.026082340395078
-0.0094453841281523
0.016684274588312
0.001810070875633
-0.018787789258308
-0.027438137530615
0.023204609152994
0.026205341298399
0.014343978837132
0.035262892172406
0.0075885463406199
0.023741524333933
0.014411311313909
-0.02037455484138
-0.03333463506507
-0.0072442118710439
0.0013390357572851
0.0084476363013632
0.034043570864014
-0.023755224172159
0.0010946921538562
-0.017560256462145
-0.0081956879501896
0.010813892120495
0.029122404554593
-0.023498994431325
-0.0021777766191268
-0.002931835479103
-0.031344447451245
0.027177606426579
-0.012745111465587
0.030937297934932
-0.0072543657650905
0.010192012647167
-0.011013079351479
-0.018101499465826
0.017783123850157
0.0046388461154753
0.032052975663516
0.0064772742667368
-0.014806551742367
-0.019331184664874
-0.0026094348203125
0.015362362560284
-0.0046795293123328
0.009533583868428
0.026016673039911
-0.0088029959006235
0.031704412706728
-0.0037304572428444
-0.030201465357095
0.0015832209859842
0.024199287307316
0.010720698678467
0.0010786366682234
0.025608545269019
0.0014864318571719
0.014151358794022
-0.017989033683469
0.021136746292801
-0.02276170546455
0.0055524503778932
-0.015062892975818
0.034208252826439
0.021592678186218
-0.011490968804407
0.01440667492404
-0.017329560210263
0.013144797362786
0.033604401479741
0.0098389157958861
0.020552229186121
0.013708716042207
-0.0058620980874236
0.034731952955813
0.034218095625485
0.033960835808622
-0.03111189023392
-0.0059217890791063
0.012740317083496
0.013075561695067
-0.034595620485821
-0.00070995967169957
0.025346784486568
0.023270685824433
-0.029812874571819
-0.027605825303388
0.012452923443301
0.005226771812886
0.026752938732638
-0.0067203950602561
0.021393560322135
-0.028924098604226
0.016840801840382
0.0097244546216513
-0.015782899672299
-0.035089141173687
-0.0071879265098167
-0.0023305738411312
0.0083244236385716
-0.0028742010472342
0.024162121266792
-0.021028266205186
-0.014097046323254
-0.030028670793399
0.01107182726264
0.033385810774884
0.0068555599178321
0.017534004807073
0.010383223915207
0.032288669176134
0.013640556401307
0.00076339618369405
-0.028555699291506
0.028942180082335
0.00039755162184259
0.012317278039908
0.034296748161848
-0.021955840173177
0.020570486617674
-0.0024879579099693
-0.03314778479814
0.032833886632164
-0.017714982503094
-0.018789723748341
-0.0070319869888148
-0.018795090893816
-0.0077945020083072
-0.0013663800200447
-0.00014210815009262
0.031657253641502
0.02913019596599
-0.014771503762209
0.026199063951416
-0.024465141402158
-0.011544831113757
0.033158445747436
-0.02799293067905
0.0217286582504
-0.033785358869604
-0.033215557640818
-0.013193407594892
0.004946423860799
-0.025084325860787
-0.012406830559485
-0.006610404134595
-0.013724659702608
0.035577976627142
-0.03483400181202
-0.02560812966632
-0.0010574381865029
0.030686211023879
-0.011524777460311
-0.01754019823524
-0.0072438972669521
-0.02653319890877
0.033009893427204
0.030662797374784
0.0031161059326093
-0.0073650767028864
-0.0074588556308299
0.014000964982967
0.0045683518484501
-0.020504063128361
0.03518873162102
-0.028013825782442
0.028106981555798
-0.03339942463208
0.0018415952300919
0.032336954260245
-0.028225556631306
-0.0089910540596715
0.015884720154905
0.011607979889959
0.023563102835656
0.028065482653411
-0.0033468679924096
-0.020311142633935
-0.025119584037124
0.024354499565171
-0.010923959813746
0.0011001631417977
-0.026004360273613
0.0035604051081464
-0.021748725092039
0.033481993895423
-0.029613998169745
-0.0082985648852108
0.01066063068408
0.007523019033085
-0.0080031994397619
-0.020002205689837
0.029168358421884
0.020961597528575
-0.0082954734929704
0.0013183062962656
-0.011773014657332
0.0015478093409911
-0.02512794701449
-0.024893451498688
0.017415085607874
-0.0031929647915864
-0.0065549980084013
0.01025829766877
0.023234978634199
-0.030673023246761
0.012615646019445
0.02876650437247
-0.027266308831583
0.0035176454943472
0.029899268510884
0.0037227447444041
-0.0063922761307497
-0.0077077277570165
-0.0054666684508058
-0.027781586196007
0.0051259491426338
-0.0037727473536506
-0.016912992262015
-0.0020335040753707
-0.026532466855964
0.034666105190159
-0.02040203037073
-0.027159631085981
-0.023201624330665
0.0011957009389464
-0.012989043490961
0.0069811552197539
-0.0076084852418197
0.0022081728592249
-0.027264230069704
-0.029614016846088
-0.010920180872615
-0.010290975981791
-0.009598053825487
-0.028268953469316
-0.0020801530751799
0.021241682980742
0.02797052907824
0.034536149618881
0.029559212869831
0.019542604884399
-0.0022241452076871
0.011728362329969
-0.018468262511306
0.009542591321016
-0.023944472195581
0.0057651463929298
0.0087383073654824
0.0043779630380283
-0.032541229190039
-0.024253957056707
-0.030131270693216
0.022857579236318
-0.012784028758428
0.00052250361269606
0.025412525831988
-0.0020485688832455
-0.022371776069381
-0.0030925524188206
0.031164108908602
-0.031667815887236
-0.033391499492739
0.010975205788522
-0.025851398041206
-0.022273219356846
0.0057297729986853
-0.0068676380407331
-0.0062563780395846
0.0088972180715895
-0.018492143717594
-0.0024392127691369
-0.00062037846406123
-0.018047808669508
0.0017134625564462
-0.006135841133073
-0.023252202846509
-0.0069079009949097
0.013197310468448
-0.016700563935696
-0.0015478746333559
0.014324800593645
-0.028579112092432
0.0045774151138695
-0.032379705126264
0.025689727327387
-0.005189632148748
0.034915462784868
-0.003770651096212
-0.015794434667831
0.033873330884879
0.034013048629276
-0.0072359864466957
0.0014959025595869
0.034873765311204
0.01986575826803
0.032649681953314
-0.033846540742421
-0.028022179812459
0.0085749151684078
0.022304570784659
-0.024325534069378
0.016129087257598
-0.015558387502097
0.024921028242846
-0.02948287629988
0.035416325820344
7.2025860260637e-05
-0.0078330781709935
-0.029113382533459
-0.013633965431446
0.01143539196346
0.00033978572381394
0.022207495656663
-0.016323382982851
0.034527471521869
-0.013230384493779
0.035046911765156
-0.023329773352348
0.0099340621381998
0.027957736198524
0.01493323359838
-0.019082520506345
-0.017827878406804
0.025593726746073
-0.011163544624911
0.035379088783105
-0.028138853177162
0.017591205092945
0.019372343418321
0.0023749848561628
-0.0053390752956537
0.030237758681843
0.013042280400571
0.017588964280938
0.00043494136272264
0.022246184659057
0.027625083141694
0.0066564815684355
-0.035168839901287
-0.018122781749948
0.0066647196986846
-0.01907679679737
0.00064487673807889
-0.0078060576093516
0.022561643438946
0.014280531289322
-0.020305980146596
-0.019281933483269
0.0070982259598428
0.031244841055013
-0.0042934323428199
0.01909217452963
-0.030521603733567
0.0004320166107001
0.0081773981551773
0.0055999431725858
0.020464121463842
0.0094595198419743
0.028437644143456
0.017450452466229
0.011680300829799
-0.020064161658021
0.0218411164325
0.02082177461125
-0.013739277059878
-0.0055564341434677
0.032514874307838
0.03567037094451
-0.0080931737320498
-0.029288104253023
-0.025464126125111
0.03231060168972
-0.012470426819553
-0.010139445192181
-0.032396700815298
-0.00023996425859098
-0.017407227640173
0.02104961329938
-0.0070822615775147
-0.0031230156309903
-0.017444412074318
-0.020252851752697
0.025211141478004
-0.0039404532040602
-0.026461272267625
-0.0045143565096493
0.020140657800117
-0.0049209303355643
0.031716997768464
-0.01376713807362
0.030860421164627
-0.030234335439413
0.02488143906729
0.0050294308124908
0.01983709625035
0.0030932014675013
-0.024264828435012
0.031557429681665
-0.02554830747457
-0.023007830471865
-0.022565402373272
-0.0088389309322728
-0.031228047612655
0.0037427346355149
-0.00031872860355569
0.0028070966945961
-0.025507948660691
0.034088449402978
0.003814844680684
0.0039829525963536
0.01768176556964
0.026307127887516
-0.00067354382814041
-0.021956252067217
-0.034883080665687
-0.032551570146877
0.022996634195027
-0.0056828073824623
0.022099613079003
-0.012985059442664
0.031087629181067
-0.011755182357904
-0.025601379689761
-0.02245537685563
-0.0097228541105453
-0.01455507821603
-0.03450186304482
-0.00074981079835977
0.023380002006888
-0.016211877976145
0.033543564512261
0.027667597601456
0.0079166594160987
-0.0098793916404247
0.014041632796372
0.011830303468741
-0.019790616235696
-0.012634959088505
0.024271903459781
-0.025508062248783
0.003015811521826
0.018041007802822
-0.010184741795196
0.021971462144783
0.027351766641784
0.028643667049307
-0.0058294212878016
0.0067554100948785
0.022904936739776
0.030722629927498
-0.032895352841089
-0.030661845662897
0.00097603828180581
0.016220033019116
-0.0080484381012086
0.02902486138711
0.011344850163109
0.029222838031793
-0.0043525682995096
-0.030351239755484
0.026811477146111
0.0090894708742521
0.002749142486469
-0.0013994140650279
-0.0036252653725179
0.032283290389127
0.023853870557754
0.018810250380609
0.023196556688552
0.013253531551787
-0.02631028606889
0.016207293524141
-0.018617703196859
0.012690616322548
-0.020185916135753
0.026326548557595
0.0097262174323467
0.014277233692285
-0.012688479269855
-0.026135303678789
-0.031987296666817
0.012571112901372
-0.0098720038409478
0.029053778553914
-0.019035104562395
-0.0090591936771359
-0.023650292905846
0.016419909146082
0.030833294515365
-0.019346199780037
-0.016327441919462
0.0071641208737024
-0.026912756995963
-0.034776265134237
-0.0095275791827589
0.013210774815109
0.03017922923235
0.022039022812221
0.010058212160532
-0.020214816056458
0.023093997251375
-0.03409556518974
0.013200114314843
0.021613436085837
0.017064329835453
-0.01684161380399
-0.0023508222241487
-0.019831831084697
0.0027088566649971
0.021533548416171
-0.0055085796297395
0.0056117256670924
0.017688200542969
-0.026383301925047
0.0053035497299529
0.0021448057876634
-0.013246908916959
0.00050379761627743
-0.0048409949688773
-0.013100972166285
0.027014039506737
-0.014651418497254
0.0028375566637676
-0.017493184572751
-0.02329575436722
0.030761171564726
-0.033069974992291
0.020252752799674
0.025149472024558
-0.018812906379545
0.035588258461628
0.032326357089914
0.027317704765924
0.030690419138409
0.011423063115217
0.01797945177116
0.020417536193106
-0.0030231809110514
-0.019847125480218
-0.0050928894197568
-0.022779133187474
-0.010831967528377
0.014013002526813
0.029320627035174
0.01165516115725
-0.013297465413676
-0.0040379153464788
0.035607052551183
-0.030144030328042
0.011535336695878
-0.016121157794259
0.0035719105508178
-0.019569316928807
-0.028125051325852
0.018741179856339
-0.010172337992117
-0.035064791844759
-0.020707241708546
0.00056626283497151
-0.034588557019431
-0.0026441472249904
0.025885278874609
-0.021665939395981
-0.034316746767477
0.018948434569341
-0.012533382063599
0.015071133999819
0.030755018283214
-0.017498841575746
0.0081241004102464
0.022658890728573
0.012437619235633
-0.0025470231027742
-0.033341091608496
-0.013293502952105
-0.0047826636416305
-0.032718545757234
0.016180287730614
0.016312043448644
-0.024388251709752
0.0026064620719158
0.018061794689856
-0.029711891132008
0.028968729777262
0.0048243569576048
0.033347324418303
-0.025629056285002
0.0033871404427503
0.034126138347866
-0.0065007083051439
-0.0035347300747942
-0.027008439813341
-0.0019989172994558
-0.0021330054649817
-0.00094128940587065
0.03138468326402
-0.0261043775993
0.034658967533947
-0.013487319279063
-0.01300257537514
-0.027130126271264
-0.027357950324326
-0.026841634551861
0.008041492862893
0.0099982286670378
0.0044208835710638
0.010760629699299
-0.014840799699804
-0.026795727217437
-0.023040299669706
0.020223199872167
0.02783180746649
0.029134727914685
0.0064342829864472
-0.0045053976355121
-0.014315230090038
0.035160017865045
-0.029546302726625
-0.0043319776388151
0.017823834770492
-0.016637814414155
0.022858724563516
0.016791082336567
-0.0038688180502504
-0.015902353833163
0.023316248153735
-0.034213095936658
0.012602748698555
0.016660194860638
-0.0089773598759036
0.0048976144753397
0.019370830601214
0.0071764885215089
-0.016026972593474
-0.027851614236299
0.023509514601236
0.00076504673675767
-0.008039354662677
0.026105744730947
-0.016468956151844
0.014301136768024
0.027644005936704
-0.025390394913432
0.016068244036952
-0.026152695130025
0.028200341488368
-0.026024985210305
-0.021747136288988
0.034117386243971
-0.014497213498024
-0.016611575731076
-0.019404928998223
0.0055934349573883
0.0075516744317221
0.0082082660602672
-0.023899679604386
0.0074124818867339
-0.01035809959285
-0.017358533838498
-0.0034229734114238
0.022773331313926
-0.013838087541184
0.011895824157234
-0.033515381377323
-0.024930003830897
0.0066399941154357
0.016271294377345
-0.034431362674305
-0.031380886877222
0.010619555583357
0.020918142000612
-0.023812266565593
0.033698666441653
0.0068657954689115
-0.017170850270694
-0.012098212310645
-0.031895550433546
0.029775511573202
0.028299832666692
0.030862259595389
-0.029583138746342
-0.023354775239048
0.022268709127924
0.0080083411885425
0.024674521093922
-0.0042311079534037
-0.008207579376176
0.0075736402068287
0.0025158264574462
0.022442498992729
-0.022500076447614
0.026612172136083
-0.034794945286454
0.032569224779893
-0.02789630195392
-0.0063279300894854
-0.021638029570957
0.0092084450880066
-0.013967856648378
-0.0016665992360296
-0.005495278331052
-0.035418106608891
0.0059028023388237
0.033848337064098
-0.0029909781047276
0.014513989045684
-0.034237867138082
-0.018229648753602
-0.026656272721344
0.033030315019589
0.0029618313003864
0.02749094075989
-0.029576538180533
-0.019021984888241
0.010641319045265
0.029834057453887
0.013004203875815
0.0042433500722317
-0.010437140274527
-0.012074383707451
-0.00046758052693414
0.021846990466916
0.014611213285077
-0.024393095169216
0.035351613120708
0.0032366495413174
0.0064941165370068
-0.029446955354485
0.027796907782821
0.032067693021548
0.0089518525471379
0.020657868390637
-0.016662653668651
-0.010026141319291
0.0057375851153795
-0.0042620270978659
0.0055915284070319
-0.0022046461402039
-0.019753514107184
0.00066914658860436
-0.017722016749238
-0.030599256162532
-0.029032376711257
0.015676504050914
-0.014455737828809
-0.0028472137471129
0.013466463557311
0.019164320014949
0.011537989884216
-0.020838996761345
-0.025133103032463
-0.0065100531127038
0.01519602796595
-0.013392543902488
